FANN_FLO_2.1
num_layers=3
learning_rate=0.700000
connection_rate=1.000000
network_type=0
learning_momentum=0.000000
training_algorithm=2
train_error_function=1
train_stop_function=0
cascade_output_change_fraction=0.010000
quickprop_decay=-0.000100
quickprop_mu=1.750000
rprop_increase_factor=1.200000
rprop_decrease_factor=0.500000
rprop_delta_min=0.000000
rprop_delta_max=50.000000
rprop_delta_zero=0.100000
cascade_output_stagnation_epochs=12
cascade_candidate_change_fraction=0.010000
cascade_candidate_stagnation_epochs=12
cascade_max_out_epochs=150
cascade_min_out_epochs=50
cascade_max_cand_epochs=150
cascade_min_cand_epochs=50
cascade_num_candidate_groups=2
bit_fail_limit=3.49999994039535522461e-01
cascade_candidate_limit=1.00000000000000000000e+03
cascade_weight_multiplier=4.00000005960464477539e-01
cascade_activation_functions_count=10
cascade_activation_functions=3 5 7 8 10 11 14 15 16 17 
cascade_activation_steepnesses_count=4
cascade_activation_steepnesses=2.50000000000000000000e-01 5.00000000000000000000e-01 7.50000000000000000000e-01 1.00000000000000000000e+00 
layer_sizes=44 10 4 
scale_included=0
neurons (num_inputs, activation_function, activation_steepness)=(0, 0, 0.00000000000000000000e+00) (0, 0, 0.00000000000000000000e+00) (0, 0, 0.00000000000000000000e+00) (0, 0, 0.00000000000000000000e+00) (0, 0, 0.00000000000000000000e+00) (0, 0, 0.00000000000000000000e+00) (0, 0, 0.00000000000000000000e+00) (0, 0, 0.00000000000000000000e+00) (0, 0, 0.00000000000000000000e+00) (0, 0, 0.00000000000000000000e+00) (0, 0, 0.00000000000000000000e+00) (0, 0, 0.00000000000000000000e+00) (0, 0, 0.00000000000000000000e+00) (0, 0, 0.00000000000000000000e+00) (0, 0, 0.00000000000000000000e+00) (0, 0, 0.00000000000000000000e+00) (0, 0, 0.00000000000000000000e+00) (0, 0, 0.00000000000000000000e+00) (0, 0, 0.00000000000000000000e+00) (0, 0, 0.00000000000000000000e+00) (0, 0, 0.00000000000000000000e+00) (0, 0, 0.00000000000000000000e+00) (0, 0, 0.00000000000000000000e+00) (0, 0, 0.00000000000000000000e+00) (0, 0, 0.00000000000000000000e+00) (0, 0, 0.00000000000000000000e+00) (0, 0, 0.00000000000000000000e+00) (0, 0, 0.00000000000000000000e+00) (0, 0, 0.00000000000000000000e+00) (0, 0, 0.00000000000000000000e+00) (0, 0, 0.00000000000000000000e+00) (0, 0, 0.00000000000000000000e+00) (0, 0, 0.00000000000000000000e+00) (0, 0, 0.00000000000000000000e+00) (0, 0, 0.00000000000000000000e+00) (0, 0, 0.00000000000000000000e+00) (0, 0, 0.00000000000000000000e+00) (0, 0, 0.00000000000000000000e+00) (0, 0, 0.00000000000000000000e+00) (0, 0, 0.00000000000000000000e+00) (0, 0, 0.00000000000000000000e+00) (0, 0, 0.00000000000000000000e+00) (0, 0, 0.00000000000000000000e+00) (0, 0, 0.00000000000000000000e+00) (44, 5, 5.00000000000000000000e-01) (44, 5, 5.00000000000000000000e-01) (44, 5, 5.00000000000000000000e-01) (44, 5, 5.00000000000000000000e-01) (44, 5, 5.00000000000000000000e-01) (44, 5, 5.00000000000000000000e-01) (44, 5, 5.00000000000000000000e-01) (44, 5, 5.00000000000000000000e-01) (44, 5, 5.00000000000000000000e-01) (0, 5, 0.00000000000000000000e+00) (10, 5, 5.00000000000000000000e-01) (10, 5, 5.00000000000000000000e-01) (10, 5, 5.00000000000000000000e-01) (0, 5, 0.00000000000000000000e+00) 
connections (connected_to_neuron, weight)=(0, 4.36331152915954589844e-01) (1, 1.67645961046218872070e-01) (2, -3.13770502805709838867e-01) (3, 5.07121860980987548828e-01) (4, 1.55844286084175109863e-01) (5, 4.41758304834365844727e-01) (6, 4.24530297517776489258e-01) (7, 3.31322580575942993164e-01) (8, 3.70634257793426513672e-01) (9, 4.10664051771163940430e-01) (10, -3.52047652006149291992e-01) (11, 2.78186053037643432617e-01) (12, -7.79984831809997558594e-01) (13, 2.52777993679046630859e-01) (14, 1.23575508594512939453e-01) (15, -4.93947952985763549805e-01) (16, 2.60744214057922363281e-01) (17, 6.78124874830245971680e-02) (18, 3.55855226516723632812e-02) (19, 9.71327781677246093750e-01) (20, 3.01577687263488769531e-01) (21, 9.37528833746910095215e-02) (22, 4.17840272188186645508e-01) (23, -1.62389791011810302734e+00) (24, -4.50739890336990356445e-01) (25, -3.13846528530120849609e-01) (26, -4.97452914714813232422e-01) (27, -4.57388687133789062500e+00) (28, -1.72718858718872070312e+00) (29, -6.36942267417907714844e-01) (30, -5.09352445602416992188e+00) (31, -3.42197418212890625000e-01) (32, -1.00341236591339111328e+00) (33, 7.00402915477752685547e-01) (34, -1.22739315032958984375e+00) (35, 1.17700684070587158203e+00) (36, 6.10139274597167968750e+00) (37, 1.47364425659179687500e+00) (38, 4.57743167877197265625e-01) (39, 3.59804898500442504883e-01) (40, -1.94736614823341369629e-01) (41, 3.72075170278549194336e-01) (42, 4.38494980335235595703e-01) (43, 2.62584984302520751953e-01) (0, 6.20402276515960693359e-01) (1, -4.72588837146759033203e-01) (2, 9.88368570804595947266e-01) (3, -3.93048614263534545898e-01) (4, -3.12785625457763671875e-01) (5, -7.20982372760772705078e-01) (6, -6.79425776004791259766e-01) (7, 6.93153440952301025391e-01) (8, 5.89611589908599853516e-01) (9, 1.89983174204826354980e-01) (10, 9.66610074043273925781e-01) (11, 9.83734786510467529297e-01) (12, 9.97610807418823242188e-01) (13, -9.11498665809631347656e-02) (14, 3.07970690727233886719e+00) (15, 1.12416541576385498047e+00) (16, -1.75814878940582275391e+00) (17, -1.31860062479972839355e-01) (18, 3.07990889996290206909e-02) (19, -4.29498791694641113281e-01) (20, 4.20668452978134155273e-01) (21, 1.40814435482025146484e+00) (22, 4.91267919540405273438e-01) (23, 1.51227879524230957031e+00) (24, 7.88339972496032714844e-01) (25, 1.59509289264678955078e+00) (26, 1.02658808231353759766e+00) (27, 3.06888532638549804688e+00) (28, 1.15197336673736572266e+00) (29, 1.78542375564575195312e+00) (30, 3.15483069419860839844e+00) (31, 2.60873126983642578125e+00) (32, -1.39558184146881103516e+00) (33, 9.12181079387664794922e-01) (34, 2.98930883407592773438e+00) (35, 4.56465095281600952148e-01) (36, -2.38996720314025878906e+00) (37, 2.27192193269729614258e-01) (38, 8.97397547960281372070e-02) (39, 5.21570324897766113281e-01) (40, 7.40782141685485839844e-01) (41, 5.73007702827453613281e-01) (42, 6.44585609436035156250e-01) (43, 5.14757096767425537109e-01) (0, -3.97283047437667846680e-01) (1, 5.16494154930114746094e-01) (2, -4.12104070186614990234e-01) (3, 9.68187808990478515625e-01) (4, 7.98541784286499023438e-01) (5, 1.13226151466369628906e+00) (6, 9.07522499561309814453e-01) (7, -4.72449332475662231445e-01) (8, -3.05426090955734252930e-01) (9, 9.27106067538261413574e-02) (10, -6.83183133602142333984e-01) (11, -4.90758150815963745117e-01) (12, -5.70178687572479248047e-01) (13, 7.97733068466186523438e-01) (14, -3.25276285409927368164e-01) (15, 5.43516993522644042969e-01) (16, 2.86046791076660156250e+00) (17, 8.67361843585968017578e-01) (18, 8.27207326889038085938e-01) (19, 1.03401374816894531250e+00) (20, -3.65885585546493530273e-01) (21, -3.64942342042922973633e-01) (22, 3.73119823634624481201e-02) (23, -7.04798400402069091797e-01) (24, -4.09030139446258544922e-01) (25, -5.13229906558990478516e-01) (26, -4.28884327411651611328e-01) (27, -3.52059990167617797852e-01) (28, -4.61385011672973632812e-01) (29, -4.68292862176895141602e-01) (30, -3.45713198184967041016e-01) (31, -1.39074373245239257812e+00) (32, -3.21010440587997436523e-01) (33, -8.26692759990692138672e-01) (34, -2.61918365955352783203e-01) (35, -2.89089053869247436523e-01) (36, 6.71992063522338867188e-01) (37, -2.61038780212402343750e-01) (38, -4.69039738178253173828e-01) (39, -1.88581272959709167480e-01) (40, -5.09855389595031738281e-01) (41, -4.34064120054244995117e-01) (42, -4.42794591188430786133e-01) (43, -3.90014290809631347656e-01) (0, -4.13035541772842407227e-01) (1, -4.81690973043441772461e-01) (2, 1.66460469365119934082e-01) (3, 4.04337972402572631836e-01) (4, 4.86815601587295532227e-01) (5, -1.69565904140472412109e+00) (6, -7.91892111301422119141e-01) (7, -1.94261625409126281738e-01) (8, -2.46803477406501770020e-01) (9, -3.78179579973220825195e-01) (10, 8.76065731048583984375e-01) (11, 1.02194845676422119141e+00) (12, 4.73221683502197265625e+00) (13, 2.00094595551490783691e-01) (14, 2.51756024360656738281e+00) (15, 3.22078800201416015625e+00) (16, 7.29114234447479248047e-01) (17, 1.46004569530487060547e+00) (18, 5.54446578025817871094e-01) (19, -1.25955820083618164062e+00) (20, -3.78563821315765380859e-01) (21, 2.29835316538810729980e-01) (22, -1.62529602646827697754e-01) (23, 7.67592906951904296875e+00) (24, 1.59645184874534606934e-01) (25, 5.98464632034301757812e+00) (26, 3.01851272583007812500e+00) (27, 1.74187774658203125000e+01) (28, 1.11872920989990234375e+01) (29, 9.03030109405517578125e+00) (30, 1.80092487335205078125e+01) (31, 4.70934963226318359375e+00) (32, 3.63990855216979980469e+00) (33, -6.46737456321716308594e-01) (34, 1.14167585372924804688e+01) (35, -4.96459627151489257812e+00) (36, -9.41385364532470703125e+00) (37, -3.90891695022583007812e+00) (38, -6.88781321048736572266e-01) (39, -2.63315928168594837189e-03) (40, 6.52540028095245361328e-01) (41, -2.66081959009170532227e-01) (42, -3.03407996892929077148e-01) (43, -2.81049847602844238281e-01) (0, 2.01498463749885559082e-01) (1, 1.17695367336273193359e+00) (2, 1.46761760115623474121e-01) (3, 7.25739121437072753906e-01) (4, 6.74562931060791015625e-01) (5, 2.05380988121032714844e+00) (6, 1.29841196537017822266e+00) (7, -6.17291107773780822754e-02) (8, -8.02735611796379089355e-02) (9, 2.89078414440155029297e-01) (10, -2.53540992736816406250e-01) (11, -6.75580978393554687500e-01) (12, -9.15173530578613281250e-01) (13, -2.04822406172752380371e-01) (14, 4.75496947765350341797e-01) (15, -2.11072134971618652344e+00) (16, -9.62643027305603027344e-02) (17, -6.21053099632263183594e-01) (18, -2.88785159587860107422e-01) (19, 7.47771441936492919922e-01) (20, 5.58944880962371826172e-01) (21, 2.69061774015426635742e-01) (22, 3.78025919198989868164e-01) (23, -1.09080290794372558594e+00) (24, -3.49589705467224121094e-01) (25, -1.67550587654113769531e+00) (26, -2.16872230172157287598e-01) (27, -1.75227165222167968750e+00) (28, -5.44751644134521484375e-01) (29, -4.76908564567565917969e-01) (30, -2.09399008750915527344e+00) (31, -6.25343799591064453125e-01) (32, -3.81003308296203613281e+00) (33, 6.50924742221832275391e-01) (34, -7.72709473967552185059e-02) (35, 6.07142591476440429688e+00) (36, 4.05650758743286132812e+00) (37, 4.86979150772094726562e+00) (38, 3.06290924549102783203e-01) (39, 8.34202527999877929688e-01) (40, 5.56950628757476806641e-01) (41, 6.17780745029449462891e-01) (42, 9.52419862151145935059e-02) (43, 4.97580170631408691406e-01) (0, -9.38979625701904296875e-01) (1, -3.40935140848159790039e-01) (2, 4.12625122070312500000e+00) (3, -3.18653762340545654297e-01) (4, -1.13617189228534698486e-01) (5, -9.71042752265930175781e-01) (6, -3.42646747827529907227e-01) (7, 5.64658045768737792969e-01) (8, 2.04567849636077880859e-01) (9, -2.61927276849746704102e-01) (10, 9.65020418167114257812e-01) (11, 9.27150607109069824219e-01) (12, 8.09849321842193603516e-01) (13, 1.51311647891998291016e+00) (14, 8.27412426471710205078e-01) (15, 3.92857742309570312500e+00) (16, 1.83640694618225097656e+00) (17, 3.27554845809936523438e+00) (18, 6.38016453012824058533e-03) (19, -7.26681172847747802734e-01) (20, 3.22001427412033081055e-01) (21, -3.75239074230194091797e-01) (22, -9.73917245864868164062e-01) (23, 1.48252522945404052734e+00) (24, 8.49480152130126953125e-01) (25, 2.21311926841735839844e+00) (26, 8.54455351829528808594e-01) (27, 8.74319934844970703125e+00) (28, 2.40111136436462402344e+00) (29, 1.34448587894439697266e+00) (30, 1.73842296600341796875e+01) (31, 3.73110985755920410156e+00) (32, 4.46875095367431640625e+00) (33, -9.40869629383087158203e-01) (34, 4.18465566635131835938e+00) (35, -4.55776166915893554688e+00) (36, -9.35757446289062500000e+00) (37, -3.54713940620422363281e+00) (38, -3.12334030866622924805e-01) (39, -1.25841152667999267578e+00) (40, 1.20815122127532958984e+00) (41, 9.89020839333534240723e-02) (42, 1.60061284899711608887e-01) (43, 3.17512542009353637695e-01) (0, -4.97144073247909545898e-01) (1, 3.12748742103576660156e+00) (2, 7.11236143112182617188e+00) (3, -1.13881599903106689453e+00) (4, -1.05768489837646484375e+00) (5, 2.76614308357238769531e+00) (6, 2.99316191673278808594e+00) (7, -7.58081138134002685547e-01) (8, -2.15953499078750610352e-01) (9, -7.07264840602874755859e-01) (10, 7.06631278991699218750e+00) (11, -2.45061445236206054688e+00) (12, 1.89230158925056457520e-01) (13, -1.53868389129638671875e+00) (14, -8.22927474975585937500e+00) (15, 1.02569210529327392578e+00) (16, -6.21578872203826904297e-01) (17, -5.71076095104217529297e-01) (18, -2.71823692321777343750e+00) (19, -1.00861997604370117188e+01) (20, 2.95348525047302246094e+00) (21, 1.19194328784942626953e+00) (22, 2.31833744049072265625e+00) (23, -1.21571779251098632812e+00) (24, 8.26056003570556640625e+00) (25, -1.96962380409240722656e+00) (26, 4.90041542053222656250e+00) (27, 4.24017524719238281250e+00) (28, 1.63775081634521484375e+01) (29, -6.04337882995605468750e+00) (30, 7.35825657844543457031e-01) (31, 3.15967044830322265625e+01) (32, 9.92160701751708984375e+00) (33, 1.74527481198310852051e-01) (34, 2.06508522033691406250e+01) (35, -2.11581397056579589844e+00) (36, -1.63445777893066406250e+01) (37, 1.88739943504333496094e+00) (38, -1.74931983947753906250e+01) (39, 6.44273567199707031250e+00) (40, 3.92244768142700195312e+00) (41, -3.22975069284439086914e-01) (42, -2.29673776775598526001e-02) (43, 1.93685412406921386719e+00) (0, 2.65668958425521850586e-01) (1, -3.27712982892990112305e-01) (2, -1.36792016029357910156e+00) (3, 1.98653960227966308594e+00) (4, 2.76914387941360473633e-01) (5, -2.74721741676330566406e-01) (6, -9.47772487998008728027e-02) (7, 1.04117237031459808350e-01) (8, 2.92981803417205810547e-01) (9, -8.39661285281181335449e-02) (10, -8.14960241317749023438e-01) (11, 5.15017628669738769531e-01) (12, 2.59941965341567993164e-01) (13, 5.43939733505249023438e+00) (14, -5.34480631351470947266e-01) (15, 1.77198612689971923828e+00) (16, 4.21041584014892578125e+00) (17, 2.04639005661010742188e+00) (18, 7.99020349979400634766e-01) (19, 1.68884372711181640625e+00) (20, 3.13701838254928588867e-01) (21, -1.50159227848052978516e+00) (22, 8.25207471847534179688e-01) (23, 2.49912008643150329590e-01) (24, 2.44629666209220886230e-01) (25, 5.46658635139465332031e-01) (26, 5.60031950473785400391e-01) (27, 1.55869781970977783203e+00) (28, -3.74908864498138427734e-01) (29, 3.94986009597778320312e+00) (30, 2.06736415624618530273e-01) (31, -4.45918922424316406250e+01) (32, 5.14120995998382568359e-01) (33, 1.71457183361053466797e+00) (34, -1.11366453170776367188e+01) (35, -2.78102278709411621094e-01) (36, 2.39827966690063476562e+00) (37, -1.85707449913024902344e-01) (38, 5.59768557548522949219e-01) (39, -3.81640434265136718750e+00) (40, -3.56536418199539184570e-01) (41, 3.22045564651489257812e-01) (42, 2.08405107259750366211e-01) (43, 3.27557712793350219727e-01) (0, 1.06165981292724609375e+00) (1, 2.04302597045898437500e+00) (2, 1.58881083130836486816e-01) (3, 1.73021829128265380859e+00) (4, 9.56232309341430664062e-01) (5, 2.37571573257446289062e+00) (6, 2.20999383926391601562e+00) (7, -6.86868667602539062500e-01) (8, -3.21252733469009399414e-01) (9, 1.05038434267044067383e-01) (10, -3.80252227187156677246e-02) (11, -1.20682239532470703125e+00) (12, -1.90485572814941406250e+00) (13, -1.30905055999755859375e+00) (14, 1.59923434257507324219e+00) (15, -1.45087468624114990234e+00) (16, -2.86993503570556640625e-01) (17, -1.96444201469421386719e+00) (18, -6.69457137584686279297e-01) (19, 2.05063843727111816406e+00) (20, 1.20017445087432861328e+00) (21, 1.25352025032043457031e+00) (22, 6.05851471424102783203e-01) (23, -2.04553890228271484375e+00) (24, -6.87193214893341064453e-01) (25, -1.65280497074127197266e+00) (26, -2.03119540214538574219e+00) (27, -1.61690139770507812500e+00) (28, -2.97538805007934570312e+00) (29, -5.18771791458129882812e+00) (30, -2.04265928268432617188e+00) (31, 1.82388257980346679688e+00) (32, -8.39252376556396484375e+00) (33, 1.00428318977355957031e+00) (34, 1.73594355583190917969e+00) (35, 6.41745471954345703125e+00) (36, 6.99313735961914062500e+00) (37, 4.88086032867431640625e+00) (38, -2.37501278519630432129e-01) (39, 2.55557942390441894531e+00) (40, 7.89902329444885253906e-01) (41, 8.06618690490722656250e-01) (42, 1.66391760110855102539e-01) (43, 1.24351632595062255859e+00) (44, 2.44027829170227050781e+00) (45, -5.60596466064453125000e-01) (46, 7.71887898445129394531e-01) (47, -3.17408008575439453125e+01) (48, 1.03021135330200195312e+01) (49, -1.02558631896972656250e+01) (50, -1.41945867538452148438e+01) (51, 2.09907627105712890625e+00) (52, 3.42991161346435546875e+00) (53, -2.43096992373466491699e-01) (44, -3.08076173067092895508e-01) (45, -3.84406775236129760742e-01) (46, 7.98288106918334960938e-01) (47, 3.14715194702148437500e+00) (48, -2.28503584861755371094e+00) (49, 3.26484465599060058594e+00) (50, 2.44538040161132812500e+01) (51, 1.67815625667572021484e-01) (52, -3.40067124366760253906e+00) (53, 4.21786934137344360352e-01) (44, 1.96495885029435157776e-03) (45, -2.64460742473602294922e-01) (46, 7.42068171501159667969e-01) (47, 8.25555133819580078125e+00) (48, -8.76811599731445312500e+00) (49, 4.14173007011413574219e-01) (50, -2.27892150878906250000e+01) (51, 3.21593093872070312500e+00) (52, -6.99147186279296875000e+01) (53, -1.18402493000030517578e+00) 
