FANN_FLO_2.1
num_layers=3
learning_rate=0.700000
connection_rate=1.000000
network_type=0
learning_momentum=0.000000
training_algorithm=2
train_error_function=1
train_stop_function=0
cascade_output_change_fraction=0.010000
quickprop_decay=-0.000100
quickprop_mu=1.750000
rprop_increase_factor=1.200000
rprop_decrease_factor=0.500000
rprop_delta_min=0.000000
rprop_delta_max=50.000000
rprop_delta_zero=0.100000
cascade_output_stagnation_epochs=12
cascade_candidate_change_fraction=0.010000
cascade_candidate_stagnation_epochs=12
cascade_max_out_epochs=150
cascade_min_out_epochs=50
cascade_max_cand_epochs=150
cascade_min_cand_epochs=50
cascade_num_candidate_groups=2
bit_fail_limit=3.49999994039535522461e-01
cascade_candidate_limit=1.00000000000000000000e+03
cascade_weight_multiplier=4.00000005960464477539e-01
cascade_activation_functions_count=10
cascade_activation_functions=3 5 7 8 10 11 14 15 16 17 
cascade_activation_steepnesses_count=4
cascade_activation_steepnesses=2.50000000000000000000e-01 5.00000000000000000000e-01 7.50000000000000000000e-01 1.00000000000000000000e+00 
layer_sizes=44 10 4 
scale_included=0
neurons (num_inputs, activation_function, activation_steepness)=(0, 0, 0.00000000000000000000e+00) (0, 0, 0.00000000000000000000e+00) (0, 0, 0.00000000000000000000e+00) (0, 0, 0.00000000000000000000e+00) (0, 0, 0.00000000000000000000e+00) (0, 0, 0.00000000000000000000e+00) (0, 0, 0.00000000000000000000e+00) (0, 0, 0.00000000000000000000e+00) (0, 0, 0.00000000000000000000e+00) (0, 0, 0.00000000000000000000e+00) (0, 0, 0.00000000000000000000e+00) (0, 0, 0.00000000000000000000e+00) (0, 0, 0.00000000000000000000e+00) (0, 0, 0.00000000000000000000e+00) (0, 0, 0.00000000000000000000e+00) (0, 0, 0.00000000000000000000e+00) (0, 0, 0.00000000000000000000e+00) (0, 0, 0.00000000000000000000e+00) (0, 0, 0.00000000000000000000e+00) (0, 0, 0.00000000000000000000e+00) (0, 0, 0.00000000000000000000e+00) (0, 0, 0.00000000000000000000e+00) (0, 0, 0.00000000000000000000e+00) (0, 0, 0.00000000000000000000e+00) (0, 0, 0.00000000000000000000e+00) (0, 0, 0.00000000000000000000e+00) (0, 0, 0.00000000000000000000e+00) (0, 0, 0.00000000000000000000e+00) (0, 0, 0.00000000000000000000e+00) (0, 0, 0.00000000000000000000e+00) (0, 0, 0.00000000000000000000e+00) (0, 0, 0.00000000000000000000e+00) (0, 0, 0.00000000000000000000e+00) (0, 0, 0.00000000000000000000e+00) (0, 0, 0.00000000000000000000e+00) (0, 0, 0.00000000000000000000e+00) (0, 0, 0.00000000000000000000e+00) (0, 0, 0.00000000000000000000e+00) (0, 0, 0.00000000000000000000e+00) (0, 0, 0.00000000000000000000e+00) (0, 0, 0.00000000000000000000e+00) (0, 0, 0.00000000000000000000e+00) (0, 0, 0.00000000000000000000e+00) (0, 0, 0.00000000000000000000e+00) (44, 5, 5.00000000000000000000e-01) (44, 5, 5.00000000000000000000e-01) (44, 5, 5.00000000000000000000e-01) (44, 5, 5.00000000000000000000e-01) (44, 5, 5.00000000000000000000e-01) (44, 5, 5.00000000000000000000e-01) (44, 5, 5.00000000000000000000e-01) (44, 5, 5.00000000000000000000e-01) (44, 5, 5.00000000000000000000e-01) (0, 5, 0.00000000000000000000e+00) (10, 5, 5.00000000000000000000e-01) (10, 5, 5.00000000000000000000e-01) (10, 5, 5.00000000000000000000e-01) (0, 5, 0.00000000000000000000e+00) 
connections (connected_to_neuron, weight)=(0, 9.24567580223083496094e-02) (1, 1.79022669792175292969e-01) (2, -5.65570564270019531250e+01) (3, 7.51280263066291809082e-02) (4, 1.80865612030029296875e+01) (5, 5.23198604583740234375e-01) (6, -3.81495535373687744141e-01) (7, 6.96450591087341308594e-01) (8, -4.57020223140716552734e-01) (9, -7.89836764335632324219e-01) (10, -2.27216243743896484375e-01) (11, 1.08180895447731018066e-01) (12, 4.78567108511924743652e-02) (13, -1.70060706138610839844e+00) (14, -5.66649551391601562500e+01) (15, 9.97691214084625244141e-01) (16, 2.41711735725402832031e+00) (17, 3.77491325139999389648e-01) (18, 8.63964259624481201172e-01) (19, 3.06580632925033569336e-01) (20, 3.62706065177917480469e-01) (21, -2.00969104766845703125e+01) (22, 5.13104259967803955078e-01) (23, 5.42187154293060302734e-01) (24, 2.81588315963745117188e-01) (25, 2.24591001868247985840e-01) (26, 2.90199249982833862305e-01) (27, -4.15763407945632934570e-01) (28, 8.34646403789520263672e-01) (29, -2.84454494714736938477e-01) (30, 4.20531988143920898438e-01) (31, 7.84428167343139648438e+00) (32, 1.70574510097503662109e+00) (33, -8.82326030731201171875e+00) (34, 5.26088476181030273438e-01) (35, 3.61808848381042480469e+00) (36, -1.14143931865692138672e+00) (37, 3.74617427587509155273e-01) (38, 2.77817696332931518555e-01) (39, 2.31334614753723144531e+00) (40, 8.51974189281463623047e-01) (41, 8.62538158893585205078e-01) (42, 1.80647164583206176758e-01) (43, 5.04290759563446044922e-01) (0, 2.61729098856449127197e-02) (1, 8.50577712059020996094e-01) (2, -3.41831445693969726562e+00) (3, 7.15196430683135986328e-01) (4, 4.69285345077514648438e+00) (5, 8.48421216011047363281e-01) (6, 7.37004339694976806641e-01) (7, -1.15335673093795776367e-01) (8, -5.03262698650360107422e-01) (9, -2.53403353691101074219e+00) (10, -3.20173859596252441406e-01) (11, -2.59734302759170532227e-01) (12, -6.07650578022003173828e-01) (13, 3.02906602621078491211e-01) (14, -8.60671806335449218750e+00) (15, 1.06335520744323730469e+00) (16, 4.43255186080932617188e-01) (17, 4.31370735168457031250e-01) (18, 8.79741489887237548828e-01) (19, 1.09503042697906494141e+00) (20, -3.36985081434249877930e-01) (21, -7.51582622528076171875e-01) (22, -7.47103840112686157227e-02) (23, -2.84569531679153442383e-01) (24, -2.88393050432205200195e-01) (25, -2.24198624491691589355e-01) (26, -1.88845321536064147949e-01) (27, -1.43924558162689208984e+00) (28, -7.53309130668640136719e-01) (29, -1.33302807807922363281e+00) (30, -1.64406478404998779297e-01) (31, 1.03780901432037353516e+00) (32, 4.93853044509887695312e+00) (33, 2.29003638029098510742e-01) (34, 4.00922447443008422852e-01) (35, 5.35777628421783447266e-01) (36, -2.20867052674293518066e-01) (37, 5.05862273275852203369e-02) (38, 7.93158710002899169922e-02) (39, 2.93624680489301681519e-02) (40, 1.12496346235275268555e-01) (41, 1.16351656615734100342e-01) (42, -4.68886435031890869141e-01) (43, 1.13088577985763549805e-01) (0, 9.02597904205322265625e-01) (1, 2.88837075233459472656e+00) (2, -1.92928981781005859375e+00) (3, 8.23557436466217041016e-01) (4, 2.42530632019042968750e+00) (5, 3.84346151351928710938e+00) (6, 4.04799789190292358398e-01) (7, -5.80152012407779693604e-02) (8, -2.46570944786071777344e-01) (9, -1.71123158931732177734e+00) (10, -2.98159450292587280273e-01) (11, -1.19776940345764160156e+00) (12, -3.23145657777786254883e-01) (13, -1.08078324794769287109e+00) (14, -4.91389960050582885742e-01) (15, 3.87222123146057128906e+00) (16, -8.13161581754684448242e-02) (17, -4.27897721529006958008e-01) (18, 6.41266167163848876953e-01) (19, 6.54068410396575927734e-01) (20, 5.55268116295337677002e-02) (21, -3.31097751855850219727e-01) (22, 3.68019491434097290039e-01) (23, -2.05295491218566894531e+00) (24, -7.30958282947540283203e-02) (25, -2.09058237075805664062e+00) (26, -2.19507869333028793335e-02) (27, -2.53432464599609375000e+00) (28, -2.79573178291320800781e+00) (29, -2.61855340003967285156e+00) (30, -2.49117565155029296875e+00) (31, 4.69527530670166015625e+00) (32, -6.88445985317230224609e-01) (33, 1.17179560661315917969e+00) (34, -3.30774456262588500977e-01) (35, 1.57598185539245605469e+00) (36, 2.87049770355224609375e-01) (37, 2.34206438064575195312e-01) (38, 8.82138252258300781250e-01) (39, -2.49740451574325561523e-01) (40, 3.16359192132949829102e-01) (41, 3.53050917387008666992e-01) (42, -8.22448313236236572266e-01) (43, 9.64786708354949951172e-01) (0, -2.96306872367858886719e+00) (1, -4.87160205841064453125e+00) (2, -3.90785145759582519531e+00) (3, -4.11535453796386718750e+00) (4, -4.16274738311767578125e+00) (5, -4.24525547027587890625e+00) (6, 2.21617415547370910645e-01) (7, 6.09492444992065429688e+00) (8, 2.45527148246765136719e+00) (9, 6.12862014770507812500e+00) (10, 6.10972309112548828125e+00) (11, 6.19318199157714843750e+00) (12, 3.50492858886718750000e+00) (13, 1.95861029624938964844e+00) (14, -8.30943775177001953125e+00) (15, -4.20390844345092773438e+00) (16, 3.81857180595397949219e+00) (17, 4.09299325942993164062e+00) (18, 8.14202010631561279297e-01) (19, -1.02393448352813720703e+00) (20, -2.06462010741233825684e-01) (21, -8.50641441345214843750e+00) (22, -6.92008733749389648438e-01) (23, 6.10038423538208007812e+00) (24, 2.85919547080993652344e+00) (25, 6.12574338912963867188e+00) (26, 2.78752660751342773438e+00) (27, 1.06126775741577148438e+01) (28, 1.05696220397949218750e+01) (29, 6.06599378585815429688e+00) (30, 6.83962774276733398438e+00) (31, -3.00392270088195800781e+00) (32, 2.34851589202880859375e+01) (33, -7.01761603355407714844e-01) (34, 3.69738721847534179688e+00) (35, -2.46958896517753601074e-01) (36, -1.37667560577392578125e+00) (37, 3.55773836374282836914e-01) (38, -2.77669310569763183594e+00) (39, 3.93121671676635742188e+00) (40, -1.40730130672454833984e+00) (41, 2.53880292177200317383e-01) (42, 6.12783336639404296875e+00) (43, -2.85660004615783691406e+00) (0, -1.63234031200408935547e+00) (1, -1.41568696498870849609e+00) (2, -1.69819843769073486328e+00) (3, -5.07643297314643859863e-02) (4, -2.37010383605957031250e+00) (5, -1.39192688465118408203e+00) (6, 1.34664416313171386719e+00) (7, 1.66531229019165039062e+00) (8, 6.93303227424621582031e-01) (9, 2.14264907836914062500e+01) (10, 8.06323528289794921875e-01) (11, 4.38693809509277343750e+00) (12, 5.49857139587402343750e-01) (13, 2.19188356399536132812e+00) (14, -8.31717300415039062500e+00) (15, -4.33035016059875488281e-01) (16, 2.33781147003173828125e+00) (17, 2.69541740417480468750e+00) (18, 2.59713244438171386719e+00) (19, 7.73413777351379394531e-01) (20, -4.17317867279052734375e-01) (21, -4.72113752365112304688e+00) (22, -4.33985114097595214844e-01) (23, 2.18295192718505859375e+00) (24, 1.55092716217041015625e+00) (25, 1.75120294094085693359e+00) (26, 7.26448237895965576172e-01) (27, 4.02195167541503906250e+01) (28, 5.01797962188720703125e+00) (29, 2.13072528839111328125e+01) (30, 2.22295904159545898438e+00) (31, -2.93280005455017089844e+00) (32, 5.65806427001953125000e+01) (33, -4.78229820728302001953e-01) (34, 2.11141514778137207031e+00) (35, 2.71812379360198974609e-01) (36, -1.68823921680450439453e+00) (37, -4.60299521684646606445e-01) (38, -1.57414054870605468750e+00) (39, 1.00172748565673828125e+01) (40, -5.35341501235961914062e-01) (41, -4.60948973894119262695e-01) (42, 8.62320542335510253906e-01) (43, -1.19544160366058349609e+00) (0, 7.20971524715423583984e-01) (1, 1.10802948474884033203e+00) (2, 3.19561839103698730469e-01) (3, 8.91265928745269775391e-01) (4, 3.62816023826599121094e+00) (5, 3.23172259330749511719e+00) (6, 3.27771276235580444336e-01) (7, -5.33009827136993408203e-01) (8, -2.07257241010665893555e-01) (9, -3.31427454948425292969e+00) (10, -2.96397417783737182617e-01) (11, -3.22485208511352539062e-01) (12, -4.22437459230422973633e-01) (13, -1.66149511933326721191e-01) (14, 1.51035642623901367188e+00) (15, 1.06316471099853515625e+00) (16, -1.15315961837768554688e+00) (17, -5.01440502703189849854e-02) (18, 2.27339878678321838379e-01) (19, 5.95406055450439453125e-01) (20, 3.58946293592453002930e-01) (21, -1.21510982513427734375e-01) (22, 2.40655392408370971680e-01) (23, -4.92323279380798339844e-01) (24, -2.40889966487884521484e-01) (25, -4.96515512466430664062e-01) (26, -3.23858410120010375977e-01) (27, -4.82218503952026367188e+00) (28, -2.23838329315185546875e+00) (29, -6.89118480682373046875e+00) (30, -4.71587657928466796875e-01) (31, 2.36894726753234863281e+00) (32, 8.51683807373046875000e+00) (33, 4.25313472747802734375e-01) (34, -6.96906745433807373047e-02) (35, 7.89169967174530029297e-01) (36, 5.12249290943145751953e-01) (37, 3.27698022127151489258e-01) (38, 7.97319948673248291016e-01) (39, -1.45814061164855957031e+00) (40, 5.35117506980895996094e-01) (41, 1.89143449068069458008e-01) (42, -4.79440093040466308594e-01) (43, 6.66239023208618164062e-01) (0, 1.61027848720550537109e+00) (1, 1.42941606044769287109e+00) (2, -9.57680702209472656250e+00) (3, 1.17919838428497314453e+00) (4, 1.44357423782348632812e+01) (5, 1.36552441120147705078e+00) (6, -3.76530289649963378906e-02) (7, -1.19263015687465667725e-01) (8, -7.50389456748962402344e-01) (9, -5.08432435989379882812e+00) (10, -5.77751159667968750000e-01) (11, -6.06644868850708007812e-01) (12, -7.88130640983581542969e-01) (13, -3.19076991081237792969e+00) (14, -2.33395786285400390625e+01) (15, 1.39781570434570312500e+00) (16, -9.68709945678710937500e+00) (17, -1.03096112608909606934e-01) (18, 2.59964823722839355469e-01) (19, 4.63372856378555297852e-01) (20, 3.09546887874603271484e-01) (21, -2.63794207572937011719e+00) (22, 2.85007745027542114258e-01) (23, -6.88947558403015136719e-01) (24, -1.09206415712833404541e-01) (25, -7.33149051666259765625e-01) (26, 9.42929536104202270508e-02) (27, -1.42738032341003417969e+00) (28, -6.58066868782043457031e-01) (29, -1.44694519042968750000e+00) (30, -6.50750517845153808594e-01) (31, 6.88038396835327148438e+00) (32, -3.95073699951171875000e+00) (33, -3.82112748920917510986e-02) (34, -4.91075515747070312500e+00) (35, 4.86444091796875000000e+00) (36, 2.31057167053222656250e-01) (37, 7.42909908294677734375e-02) (38, 1.64896583557128906250e+00) (39, -9.62250137329101562500e+00) (40, 1.15526974201202392578e+00) (41, 3.79554480314254760742e-01) (42, -7.81003594398498535156e-01) (43, 8.12726616859436035156e-01) (0, 5.32338559627532958984e-01) (1, -5.95972597599029541016e-01) (2, 5.61849403381347656250e+00) (3, -4.53983753919601440430e-01) (4, -6.40321075916290283203e-01) (5, -9.89418685436248779297e-01) (6, -5.61983406543731689453e-01) (7, 1.00177323818206787109e+00) (8, 1.14504814147949218750e+00) (9, 1.14704656600952148438e+00) (10, 1.09611892700195312500e+00) (11, 9.15799677371978759766e-01) (12, 1.10382115840911865234e+00) (13, -3.95074576139450073242e-01) (14, 1.58958148956298828125e+00) (15, -7.27802872657775878906e-01) (16, 6.72922730445861816406e-01) (17, 2.42731124162673950195e-01) (18, -5.77199757099151611328e-01) (19, -4.95067417621612548828e-01) (20, 9.96119916439056396484e-01) (21, 4.23034954071044921875e+00) (22, 7.92658805847167968750e-01) (23, 1.23472142219543457031e+00) (24, 1.10393559932708740234e+00) (25, 1.10856664180755615234e+00) (26, 1.03617453575134277344e+00) (27, 2.66021847724914550781e+00) (28, 1.46313381195068359375e+00) (29, 1.51835501194000244141e+00) (30, 1.14685571193695068359e+00) (31, 6.58389687538146972656e-01) (32, -4.03404045104980468750e+00) (33, 4.42807167768478393555e-01) (34, -1.52412146329879760742e-01) (35, 9.34535980224609375000e-01) (36, 4.97473865747451782227e-01) (37, 1.07045066356658935547e+00) (38, 5.33519923686981201172e-01) (39, 1.08316600322723388672e+00) (40, 7.75260865688323974609e-01) (41, 9.69972670078277587891e-01) (42, 1.14053845405578613281e+00) (43, 1.01839387416839599609e+00) (0, 9.41875874996185302734e-02) (1, 4.00498956441879272461e-01) (2, -5.66874046325683593750e+01) (3, -1.10211689025163650513e-02) (4, 1.24812984466552734375e+01) (5, 6.91507995128631591797e-01) (6, -5.60143411159515380859e-01) (7, 7.62677967548370361328e-01) (8, -2.38184407353401184082e-01) (9, -3.17654109001159667969e+00) (10, -2.43188098073005676270e-01) (11, -2.05685853958129882812e-01) (12, 6.44558051135390996933e-04) (13, -1.91535902023315429688e+00) (14, -5.65393524169921875000e+01) (15, 1.42230165004730224609e+00) (16, 3.40715348720550537109e-01) (17, 4.06102508306503295898e-01) (18, 3.58940839767456054688e-01) (19, 5.70271722972393035889e-02) (20, 8.67436110973358154297e-01) (21, -5.84527111053466796875e+00) (22, 7.71971344947814941406e-01) (23, 3.14341038465499877930e-01) (24, 9.28143978118896484375e-01) (25, -1.80140420794486999512e-01) (26, 1.28694057464599609375e+00) (27, -1.83301985263824462891e+00) (28, 3.22045832872390747070e-01) (29, -3.25648498535156250000e+00) (30, 3.55889558792114257812e-01) (31, 7.81495428085327148438e+00) (32, 1.07627201080322265625e+00) (33, -2.19987177848815917969e+00) (34, 3.34492713212966918945e-01) (35, 3.53143572807312011719e+00) (36, 1.42175257205963134766e-01) (37, 5.02221286296844482422e-01) (38, 8.83097350597381591797e-02) (39, 4.64117914438247680664e-01) (40, 1.16452670097351074219e+00) (41, 3.12259840965270996094e+00) (42, 1.61408469080924987793e-01) (43, 2.24056124687194824219e-01) (44, -3.47216576337814331055e-01) (45, 1.37574887275695800781e+00) (46, 2.34603900909423828125e+01) (47, -9.72329139709472656250e+00) (48, -1.89468204975128173828e+00) (49, 1.01353530883789062500e+01) (50, 9.93904829025268554688e-01) (51, -4.70765203237533569336e-01) (52, -2.65205174684524536133e-01) (53, -1.99856609106063842773e-02) (44, 4.83325386047363281250e+00) (45, 5.07542788982391357422e-01) (46, 6.29945576190948486328e-01) (47, 3.02093458175659179688e+00) (48, 2.05203962326049804688e+00) (49, 2.76776075363159179688e-01) (50, 2.33622312545776367188e-01) (51, -1.95096254348754882812e-01) (52, 4.71961975097656250000e+00) (53, -8.85446131229400634766e-01) (44, -1.92840862274169921875e+00) (45, 6.36788845062255859375e-01) (46, -7.08804428577423095703e-01) (47, 1.06287562847137451172e+00) (48, 2.02291846275329589844e+00) (49, -3.42706963419914245605e-02) (50, -2.36208667755126953125e+01) (51, -1.63474166393280029297e+00) (52, -1.15566005706787109375e+01) (53, -1.02580595016479492188e+01) 
