FANN_FLO_2.1
num_layers=3
learning_rate=0.700000
connection_rate=1.000000
network_type=0
learning_momentum=0.000000
training_algorithm=2
train_error_function=1
train_stop_function=0
cascade_output_change_fraction=0.010000
quickprop_decay=-0.000100
quickprop_mu=1.750000
rprop_increase_factor=1.200000
rprop_decrease_factor=0.500000
rprop_delta_min=0.000000
rprop_delta_max=50.000000
rprop_delta_zero=0.100000
cascade_output_stagnation_epochs=12
cascade_candidate_change_fraction=0.010000
cascade_candidate_stagnation_epochs=12
cascade_max_out_epochs=150
cascade_min_out_epochs=50
cascade_max_cand_epochs=150
cascade_min_cand_epochs=50
cascade_num_candidate_groups=2
bit_fail_limit=3.49999994039535522461e-01
cascade_candidate_limit=1.00000000000000000000e+03
cascade_weight_multiplier=4.00000005960464477539e-01
cascade_activation_functions_count=10
cascade_activation_functions=3 5 7 8 10 11 14 15 16 17 
cascade_activation_steepnesses_count=4
cascade_activation_steepnesses=2.50000000000000000000e-01 5.00000000000000000000e-01 7.50000000000000000000e-01 1.00000000000000000000e+00 
layer_sizes=44 10 4 
scale_included=0
neurons (num_inputs, activation_function, activation_steepness)=(0, 0, 0.00000000000000000000e+00) (0, 0, 0.00000000000000000000e+00) (0, 0, 0.00000000000000000000e+00) (0, 0, 0.00000000000000000000e+00) (0, 0, 0.00000000000000000000e+00) (0, 0, 0.00000000000000000000e+00) (0, 0, 0.00000000000000000000e+00) (0, 0, 0.00000000000000000000e+00) (0, 0, 0.00000000000000000000e+00) (0, 0, 0.00000000000000000000e+00) (0, 0, 0.00000000000000000000e+00) (0, 0, 0.00000000000000000000e+00) (0, 0, 0.00000000000000000000e+00) (0, 0, 0.00000000000000000000e+00) (0, 0, 0.00000000000000000000e+00) (0, 0, 0.00000000000000000000e+00) (0, 0, 0.00000000000000000000e+00) (0, 0, 0.00000000000000000000e+00) (0, 0, 0.00000000000000000000e+00) (0, 0, 0.00000000000000000000e+00) (0, 0, 0.00000000000000000000e+00) (0, 0, 0.00000000000000000000e+00) (0, 0, 0.00000000000000000000e+00) (0, 0, 0.00000000000000000000e+00) (0, 0, 0.00000000000000000000e+00) (0, 0, 0.00000000000000000000e+00) (0, 0, 0.00000000000000000000e+00) (0, 0, 0.00000000000000000000e+00) (0, 0, 0.00000000000000000000e+00) (0, 0, 0.00000000000000000000e+00) (0, 0, 0.00000000000000000000e+00) (0, 0, 0.00000000000000000000e+00) (0, 0, 0.00000000000000000000e+00) (0, 0, 0.00000000000000000000e+00) (0, 0, 0.00000000000000000000e+00) (0, 0, 0.00000000000000000000e+00) (0, 0, 0.00000000000000000000e+00) (0, 0, 0.00000000000000000000e+00) (0, 0, 0.00000000000000000000e+00) (0, 0, 0.00000000000000000000e+00) (0, 0, 0.00000000000000000000e+00) (0, 0, 0.00000000000000000000e+00) (0, 0, 0.00000000000000000000e+00) (0, 0, 0.00000000000000000000e+00) (44, 5, 5.00000000000000000000e-01) (44, 5, 5.00000000000000000000e-01) (44, 5, 5.00000000000000000000e-01) (44, 5, 5.00000000000000000000e-01) (44, 5, 5.00000000000000000000e-01) (44, 5, 5.00000000000000000000e-01) (44, 5, 5.00000000000000000000e-01) (44, 5, 5.00000000000000000000e-01) (44, 5, 5.00000000000000000000e-01) (0, 5, 0.00000000000000000000e+00) (10, 5, 5.00000000000000000000e-01) (10, 5, 5.00000000000000000000e-01) (10, 5, 5.00000000000000000000e-01) (0, 5, 0.00000000000000000000e+00) 
connections (connected_to_neuron, weight)=(0, -8.90795648097991943359e-01) (1, -5.91925919055938720703e-01) (2, -6.75614166259765625000e+00) (3, 4.21224385499954223633e-01) (4, -2.12530183792114257812e+00) (5, -1.69053900241851806641e+00) (6, -3.49283695220947265625e-01) (7, 1.08341288566589355469e+00) (8, 1.13350403308868408203e+00) (9, 3.77644449472427368164e-01) (10, 1.14767670631408691406e+00) (11, 1.14459860324859619141e+00) (12, 2.00709199905395507812e+00) (13, 1.87093421816825866699e-01) (14, 1.13678712844848632812e+01) (15, 2.31212869286537170410e-01) (16, 4.87005424499511718750e+00) (17, 1.61461210250854492188e+00) (18, -3.25714468955993652344e-01) (19, 2.47862022370100021362e-02) (20, 7.01813042163848876953e-01) (21, -1.41113352775573730469e+00) (22, 1.18167161941528320312e-01) (23, 9.75061118602752685547e-01) (24, 3.05203819274902343750e+00) (25, 1.13113284111022949219e+00) (26, 1.00202357769012451172e+00) (27, 2.18020772933959960938e+00) (28, 9.82462406158447265625e+00) (29, 3.29720497131347656250e+00) (30, 2.17989444732666015625e+00) (31, 5.65701782703399658203e-01) (32, 1.31546583175659179688e+01) (33, -2.66066098213195800781e+00) (34, 1.84793376922607421875e+00) (35, 3.55267941951751708984e-01) (36, 5.98958790302276611328e-01) (37, 1.01733529567718505859e+00) (38, -1.05203580856323242188e+00) (39, 6.91702270507812500000e+00) (40, 7.93357640504837036133e-02) (41, 1.62957936525344848633e-01) (42, 8.39061737060546875000e-01) (43, 5.89427590370178222656e-01) (0, -8.91079723834991455078e-01) (1, -4.25704479217529296875e-01) (2, -3.39752030372619628906e+00) (3, 4.78459775447845458984e-01) (4, -2.14269804954528808594e+00) (5, -1.67239511013031005859e+00) (6, -2.70973891019821166992e-01) (7, 1.03120577335357666016e+00) (8, 1.15440797805786132812e+00) (9, 5.98042428493499755859e-01) (10, 1.04722774028778076172e+00) (11, 1.12073040008544921875e+00) (12, 2.16910696029663085938e+00) (13, 1.11844107508659362793e-01) (14, 1.15241374969482421875e+01) (15, 1.27549782395362854004e-01) (16, 4.85486173629760742188e+00) (17, 1.69151496887207031250e+00) (18, -3.25599670410156250000e-01) (19, -8.45989808440208435059e-02) (20, 6.43146693706512451172e-01) (21, -3.27005311846733093262e-02) (22, -2.98525601625442504883e-01) (23, 1.09165525436401367188e+00) (24, 3.05993580818176269531e+00) (25, 9.95279014110565185547e-01) (26, 1.08582174777984619141e+00) (27, 3.35973501205444335938e+00) (28, 9.79401969909667968750e+00) (29, 3.34119153022766113281e+00) (30, 3.34298324584960937500e+00) (31, 5.34813225269317626953e-01) (32, 1.31648664474487304688e+01) (33, -2.81528401374816894531e+00) (34, 1.67428040504455566406e+00) (35, 3.48079800605773925781e-01) (36, 4.62479412555694580078e-01) (37, 1.12199163436889648438e+00) (38, -8.84348332881927490234e-01) (39, 3.11144781112670898438e+00) (40, 5.99489957094192504883e-02) (41, 2.30196341872215270996e-01) (42, 1.17239952087402343750e+00) (43, 5.32056093215942382812e-01) (0, -1.32616555690765380859e+00) (1, -4.87076669931411743164e-01) (2, -3.35855507850646972656e+00) (3, 4.58362013101577758789e-01) (4, -1.36247622966766357422e+00) (5, -1.44994509220123291016e+00) (6, -3.28862816095352172852e-01) (7, 8.22392404079437255859e-01) (8, 1.13713562488555908203e+00) (9, 2.06712937355041503906e+00) (10, 6.28455877304077148438e-01) (11, 1.21861875057220458984e+00) (12, 1.19232916831970214844e+00) (13, 2.48932033777236938477e-01) (14, 1.58474814891815185547e+00) (15, 4.45888973772525787354e-02) (16, 1.39260101318359375000e+00) (17, 3.23808163404464721680e-01) (18, -2.32517883181571960449e-01) (19, 2.43981942534446716309e-01) (20, 1.92722871899604797363e-01) (21, -1.46746397018432617188e+00) (22, 9.17463153600692749023e-02) (23, 6.38283371925354003906e-01) (24, 2.15266847610473632812e+00) (25, 1.24997138977050781250e+00) (26, 7.05590188503265380859e-01) (27, 1.18294382095336914062e+00) (28, 3.99275040626525878906e+00) (29, 1.25965785980224609375e+00) (30, 1.32587265968322753906e+00) (31, 3.19247812032699584961e-01) (32, 1.36593866348266601562e+01) (33, -4.01907533407211303711e-01) (34, 2.20445013046264648438e+00) (35, -3.46390426158905029297e-01) (36, 3.84027026593685150146e-02) (37, 7.22199141979217529297e-01) (38, -3.28332245349884033203e-01) (39, 3.72643899917602539062e+00) (40, 3.07385921478271484375e-01) (41, 2.11713127791881561279e-02) (42, 1.05171823501586914062e+00) (43, -4.67641949653625488281e-02) (0, 2.88648247718811035156e+00) (1, 3.33378463983535766602e-01) (2, 1.09085044860839843750e+01) (3, 4.46479499340057373047e-01) (4, 3.41057395935058593750e+00) (5, 1.61221754550933837891e+00) (6, 7.91238605976104736328e-01) (7, -4.94666308164596557617e-01) (8, -8.55566561222076416016e-01) (9, -2.12558045983314514160e-01) (10, -4.98526781797409057617e-01) (11, -1.31699621677398681641e-01) (12, -2.18883320689201354980e-01) (13, 7.55456686019897460938e-02) (14, -2.13967323303222656250e+00) (15, 1.94743946194648742676e-02) (16, -5.36257624626159667969e-01) (17, -2.32597310096025466919e-02) (18, 2.64078080654144287109e-01) (19, 6.19241185486316680908e-02) (20, 2.11388871073722839355e-01) (21, 1.20955669879913330078e+00) (22, 5.64989686012268066406e-01) (23, -9.29617702960968017578e-01) (24, -2.41547489166259765625e+00) (25, -9.57146048545837402344e-01) (26, -9.62333023548126220703e-01) (27, -8.35361719131469726562e-01) (28, -7.52709674835205078125e+00) (29, -8.95880401134490966797e-01) (30, -2.28740930557250976562e+00) (31, 4.76814150810241699219e-01) (32, -1.43704919815063476562e+01) (33, 1.86208224296569824219e+00) (34, -8.76474499702453613281e-01) (35, 3.84043723344802856445e-01) (36, 4.23074632883071899414e-01) (37, -2.95428708195686340332e-02) (38, 9.73535835742950439453e-01) (39, -2.71747469902038574219e+00) (40, 4.86818701028823852539e-01) (41, 5.13337254524230957031e-01) (42, 2.29857608675956726074e-01) (43, 2.69601881504058837891e-01) (0, -2.14895462989807128906e+00) (1, -6.75797522068023681641e-01) (2, -9.00326538085937500000e+00) (3, 3.28208804130554199219e-01) (4, -1.39026391506195068359e+00) (5, -1.48655092716217041016e+00) (6, -1.66946977376937866211e-01) (7, 9.20949041843414306641e-01) (8, 2.19700431823730468750e+00) (9, 2.09695434570312500000e+00) (10, 1.20682919025421142578e+00) (11, 1.30864417552947998047e+00) (12, 1.23998153209686279297e+00) (13, 1.96719393134117126465e-01) (14, 3.93031191825866699219e+00) (15, 2.52266108989715576172e-01) (16, 4.71709519624710083008e-01) (17, 2.86401569843292236328e-01) (18, -1.94416061043739318848e-01) (19, 2.56077468395233154297e-01) (20, 2.44626492261886596680e-01) (21, -1.43229246139526367188e+00) (22, -1.42060499638319015503e-02) (23, 1.17528080940246582031e+00) (24, 2.18781614303588867188e+00) (25, 1.20662343502044677734e+00) (26, 1.21621060371398925781e+00) (27, 3.37542390823364257812e+00) (28, 9.86899280548095703125e+00) (29, 3.77877283096313476562e+00) (30, 3.67955136299133300781e+00) (31, 1.07658520340919494629e-01) (32, 3.25969810485839843750e+01) (33, -7.12663769721984863281e-01) (34, 1.68237090110778808594e+00) (35, -1.42888545989990234375e-01) (36, 3.09151820838451385498e-02) (37, 6.09052300453186035156e-01) (38, -4.22133713960647583008e-01) (39, 8.03172016143798828125e+00) (40, 1.13969586789608001709e-01) (41, -9.14939790964126586914e-02) (42, 2.50136345624923706055e-01) (43, 9.80085954070091247559e-02) (0, -1.00931131839752197266e+00) (1, -4.06530022621154785156e-01) (2, -8.88608360290527343750e+00) (3, 4.02931362390518188477e-01) (4, -2.06647920608520507812e+00) (5, -5.19828677177429199219e-01) (6, -2.69098997116088867188e-01) (7, 1.12360322475433349609e+00) (8, 1.59539043903350830078e+00) (9, 2.68357664346694946289e-01) (10, 1.15235042572021484375e+00) (11, 9.63344931602478027344e-01) (12, 1.06512832641601562500e+00) (13, 5.36900088191032409668e-02) (14, 1.15118322372436523438e+01) (15, 1.10498808324337005615e-01) (16, 4.69854259490966796875e+00) (17, 1.54899609088897705078e+00) (18, -3.54411244392395019531e-01) (19, 3.73076409101486206055e-01) (20, 4.86387193202972412109e-01) (21, -1.50196194648742675781e+00) (22, 1.59466221928596496582e-01) (23, 1.13553488254547119141e+00) (24, 3.03080391883850097656e+00) (25, 1.13300943374633789062e+00) (26, 9.81284081935882568359e-01) (27, 2.16261482238769531250e+00) (28, 9.88368225097656250000e+00) (29, 3.29186987876892089844e+00) (30, 2.12599611282348632812e+00) (31, -4.36334162950515747070e-02) (32, 1.31347188949584960938e+01) (33, -2.78427481651306152344e+00) (34, 1.77018308639526367188e+00) (35, 3.94151449203491210938e-01) (36, 3.27273607254028320312e-01) (37, 1.01976919174194335938e+00) (38, -9.72962081432342529297e-01) (39, 6.73709869384765625000e+00) (40, -1.87720991671085357666e-02) (41, 2.46705353260040283203e-01) (42, 6.77884221076965332031e-01) (43, 5.91915428638458251953e-01) (0, -2.14276528358459472656e+00) (1, -5.19297361373901367188e-01) (2, -3.51574683189392089844e+00) (3, 2.41207644343376159668e-01) (4, -2.28142833709716796875e+00) (5, -9.34348344802856445312e-01) (6, 2.48016700148582458496e-01) (7, 1.65272974967956542969e+00) (8, 1.78328275680541992188e+00) (9, 1.64474320411682128906e+00) (10, 7.18185603618621826172e-01) (11, 7.73356735706329345703e-01) (12, 8.89768540859222412109e-01) (13, 5.39077818393707275391e-01) (14, 3.84604120254516601562e+00) (15, 6.16663992404937744141e-01) (16, 9.97222602367401123047e-01) (17, 6.91085577011108398438e-01) (18, 2.26336807012557983398e-01) (19, 6.56365752220153808594e-01) (20, 2.47242525219917297363e-02) (21, -7.84772872924804687500e-01) (22, 1.30954543128609657288e-02) (23, 8.64828884601593017578e-01) (24, 3.51142263412475585938e+00) (25, 9.37327444553375244141e-01) (26, 9.19996678829193115234e-01) (27, 8.32562625408172607422e-01) (28, 5.20838022232055664062e+00) (29, 8.97620379924774169922e-01) (30, 1.72911763191223144531e+00) (31, -4.00103107094764709473e-02) (32, 3.24560508728027343750e+01) (33, -2.30945095419883728027e-01) (34, 3.24742960929870605469e+00) (35, -4.93056416511535644531e-01) (36, -6.46186172962188720703e-02) (37, 6.87102437019348144531e-01) (38, -5.11185467243194580078e-01) (39, 6.77967166900634765625e+00) (40, -8.15478488802909851074e-02) (41, -5.34085072576999664307e-02) (42, 4.02226805686950683594e-01) (43, 2.14005783200263977051e-02) (0, 1.98381423950195312500e+00) (1, 2.83001303672790527344e-01) (2, 1.01102275848388671875e+01) (3, 4.92914527654647827148e-01) (4, 3.15614008903503417969e+00) (5, 1.48797798156738281250e+00) (6, 2.63028860092163085938e-01) (7, 2.93474078178405761719e-01) (8, -6.36585712432861328125e-01) (9, 2.55640476942062377930e-01) (10, -4.98671323060989379883e-01) (11, 3.06198984384536743164e-01) (12, -6.37945830821990966797e-01) (13, -2.98407196998596191406e-01) (14, -2.08989810943603515625e+00) (15, 1.21097236871719360352e-01) (16, -4.49736475944519042969e-01) (17, -4.00723010301589965820e-01) (18, 3.38760584592819213867e-01) (19, -3.12585234642028808594e-01) (20, 8.12318921089172363281e-01) (21, 1.08930647373199462891e+00) (22, 1.02894055843353271484e+00) (23, -6.51741027832031250000e-01) (24, -1.95451104640960693359e+00) (25, -6.81152164936065673828e-01) (26, -5.94925463199615478516e-01) (27, -2.09205961227416992188e+00) (28, -7.16165542602539062500e+00) (29, -2.07939791679382324219e+00) (30, -2.00963735580444335938e+00) (31, 9.04568910598754882812e-01) (32, -3.25359230041503906250e+01) (33, 2.28413748741149902344e+00) (34, -8.38570535182952880859e-01) (35, 8.03747594356536865234e-01) (36, 7.84928679466247558594e-01) (37, 5.95557868480682373047e-01) (38, 8.68056297302246093750e-01) (39, -1.04216945171356201172e+00) (40, 9.71007764339447021484e-01) (41, 9.67175424098968505859e-01) (42, 2.93352365493774414062e-01) (43, 7.85015642642974853516e-01) (0, 1.96298635005950927734e+00) (1, 5.77378511428833007812e-01) (2, 4.75781869888305664062e+00) (3, -9.29723531007766723633e-02) (4, 5.54775476455688476562e+00) (5, 1.25206482410430908203e+00) (6, 1.00155842304229736328e+00) (7, -6.70549213886260986328e-01) (8, -7.41988599300384521484e-01) (9, -7.03042820096015930176e-02) (10, -5.07890462875366210938e-01) (11, -2.04982089996337890625e+00) (12, -2.12250494956970214844e+00) (13, 2.82635241746902465820e-01) (14, -1.02215707302093505859e+00) (15, 3.07626843452453613281e-01) (16, -7.53042638301849365234e-01) (17, 1.78338214755058288574e-01) (18, 8.84200215339660644531e-01) (19, 9.25487801432609558105e-02) (20, 1.89384192228317260742e-01) (21, 1.20249223709106445312e+00) (22, 2.05449298024177551270e-01) (23, -4.11879211664199829102e-01) (24, -1.48747146129608154297e+00) (25, -4.51235979795455932617e-01) (26, -4.18621361255645751953e-01) (27, -5.75082719326019287109e-01) (28, -2.92621588706970214844e+00) (29, -6.25392377376556396484e-01) (30, -7.11796104907989501953e-01) (31, 1.51164278388023376465e-01) (32, -1.33262662887573242188e+01) (33, 1.48001074790954589844e+00) (34, -1.14320969581604003906e+00) (35, 4.99815165996551513672e-01) (36, 1.41243204474449157715e-01) (37, -4.59489971399307250977e-01) (38, 6.22778594493865966797e-01) (39, -3.14575958251953125000e+00) (40, 1.62983864545822143555e-01) (41, 1.82512536644935607910e-01) (42, -1.65722697973251342773e-01) (43, 2.54588633775711059570e-01) (44, -7.70294547080993652344e-01) (45, -6.46241545677185058594e-01) (46, -5.07516002655029296875e+00) (47, 4.25963282585144042969e-01) (48, -3.25876960754394531250e+01) (49, -6.35354101657867431641e-01) (50, -1.60920605063438415527e-01) (51, 5.77252767980098724365e-02) (52, 3.90355658531188964844e+00) (53, 1.30110964179039001465e-01) (44, 3.99823039770126342773e-01) (45, 4.02186542749404907227e-01) (46, 3.46655559539794921875e+00) (47, -3.02198737859725952148e-01) (48, 3.26168746948242187500e+01) (49, 4.63443189859390258789e-01) (50, 7.06313371658325195312e-01) (51, -2.09666118025779724121e-01) (52, -3.91371703147888183594e+00) (53, 4.13781523704528808594e-01) (44, -7.60022342205047607422e-01) (45, -7.12566673755645751953e-01) (46, 1.85795199871063232422e+00) (47, -6.00206375122070312500e+00) (48, 1.02873468399047851562e+00) (49, -6.92476451396942138672e-01) (50, 7.25272941589355468750e+00) (51, -6.01000595092773437500e+00) (52, 1.58708155155181884766e-01) (53, -2.32878856658935546875e+01) 
