FANN_FLO_2.1
num_layers=3
learning_rate=0.700000
connection_rate=1.000000
network_type=0
learning_momentum=0.000000
training_algorithm=2
train_error_function=1
train_stop_function=0
cascade_output_change_fraction=0.010000
quickprop_decay=-0.000100
quickprop_mu=1.750000
rprop_increase_factor=1.200000
rprop_decrease_factor=0.500000
rprop_delta_min=0.000000
rprop_delta_max=50.000000
rprop_delta_zero=0.100000
cascade_output_stagnation_epochs=12
cascade_candidate_change_fraction=0.010000
cascade_candidate_stagnation_epochs=12
cascade_max_out_epochs=150
cascade_min_out_epochs=50
cascade_max_cand_epochs=150
cascade_min_cand_epochs=50
cascade_num_candidate_groups=2
bit_fail_limit=3.49999994039535522461e-01
cascade_candidate_limit=1.00000000000000000000e+03
cascade_weight_multiplier=4.00000005960464477539e-01
cascade_activation_functions_count=10
cascade_activation_functions=3 5 7 8 10 11 14 15 16 17 
cascade_activation_steepnesses_count=4
cascade_activation_steepnesses=2.50000000000000000000e-01 5.00000000000000000000e-01 7.50000000000000000000e-01 1.00000000000000000000e+00 
layer_sizes=44 10 4 
scale_included=0
neurons (num_inputs, activation_function, activation_steepness)=(0, 0, 0.00000000000000000000e+00) (0, 0, 0.00000000000000000000e+00) (0, 0, 0.00000000000000000000e+00) (0, 0, 0.00000000000000000000e+00) (0, 0, 0.00000000000000000000e+00) (0, 0, 0.00000000000000000000e+00) (0, 0, 0.00000000000000000000e+00) (0, 0, 0.00000000000000000000e+00) (0, 0, 0.00000000000000000000e+00) (0, 0, 0.00000000000000000000e+00) (0, 0, 0.00000000000000000000e+00) (0, 0, 0.00000000000000000000e+00) (0, 0, 0.00000000000000000000e+00) (0, 0, 0.00000000000000000000e+00) (0, 0, 0.00000000000000000000e+00) (0, 0, 0.00000000000000000000e+00) (0, 0, 0.00000000000000000000e+00) (0, 0, 0.00000000000000000000e+00) (0, 0, 0.00000000000000000000e+00) (0, 0, 0.00000000000000000000e+00) (0, 0, 0.00000000000000000000e+00) (0, 0, 0.00000000000000000000e+00) (0, 0, 0.00000000000000000000e+00) (0, 0, 0.00000000000000000000e+00) (0, 0, 0.00000000000000000000e+00) (0, 0, 0.00000000000000000000e+00) (0, 0, 0.00000000000000000000e+00) (0, 0, 0.00000000000000000000e+00) (0, 0, 0.00000000000000000000e+00) (0, 0, 0.00000000000000000000e+00) (0, 0, 0.00000000000000000000e+00) (0, 0, 0.00000000000000000000e+00) (0, 0, 0.00000000000000000000e+00) (0, 0, 0.00000000000000000000e+00) (0, 0, 0.00000000000000000000e+00) (0, 0, 0.00000000000000000000e+00) (0, 0, 0.00000000000000000000e+00) (0, 0, 0.00000000000000000000e+00) (0, 0, 0.00000000000000000000e+00) (0, 0, 0.00000000000000000000e+00) (0, 0, 0.00000000000000000000e+00) (0, 0, 0.00000000000000000000e+00) (0, 0, 0.00000000000000000000e+00) (0, 0, 0.00000000000000000000e+00) (44, 5, 5.00000000000000000000e-01) (44, 5, 5.00000000000000000000e-01) (44, 5, 5.00000000000000000000e-01) (44, 5, 5.00000000000000000000e-01) (44, 5, 5.00000000000000000000e-01) (44, 5, 5.00000000000000000000e-01) (44, 5, 5.00000000000000000000e-01) (44, 5, 5.00000000000000000000e-01) (44, 5, 5.00000000000000000000e-01) (0, 5, 0.00000000000000000000e+00) (10, 5, 5.00000000000000000000e-01) (10, 5, 5.00000000000000000000e-01) (10, 5, 5.00000000000000000000e-01) (0, 5, 0.00000000000000000000e+00) 
connections (connected_to_neuron, weight)=(0, 1.11011099815368652344e+00) (1, 2.56169885396957397461e-01) (2, 1.36956602334976196289e-01) (3, 1.04019296169281005859e+00) (4, 5.02593338489532470703e-01) (5, -1.15558758378028869629e-01) (6, -1.34675681591033935547e-01) (7, -1.04696534574031829834e-01) (8, -1.83698236942291259766e+00) (9, 3.90102595090866088867e-01) (10, 3.79890471696853637695e-01) (11, 5.00471115112304687500e-01) (12, 4.60038959980010986328e-01) (13, 9.86873030662536621094e-01) (14, -1.52928524017333984375e+01) (15, 5.70284426212310791016e-01) (16, -4.77612257003784179688e-01) (17, 7.44324386119842529297e-01) (18, 4.77037966251373291016e-01) (19, 1.87630075961351394653e-02) (20, -7.43542239069938659668e-02) (21, -1.97121787071228027344e+00) (22, 4.90079373121261596680e-01) (23, 2.20602810382843017578e-01) (24, -2.07321532070636749268e-02) (25, 4.61801141500473022461e-01) (26, 4.43250268697738647461e-01) (27, 1.87508925795555114746e-01) (28, 3.32626074552536010742e-01) (29, 5.02273797988891601562e-01) (30, 4.59902316331863403320e-01) (31, 1.02660489082336425781e+00) (32, -3.39326834678649902344e+00) (33, -6.08132779598236083984e-01) (34, -8.49001526832580566406e-01) (35, -3.15973782539367675781e+00) (36, -4.51013803482055664062e+00) (37, 8.12995970249176025391e-01) (38, 1.57434672117233276367e-01) (39, 4.50277280807495117188e+00) (40, 1.20624697208404541016e+00) (41, 2.73261904716491699219e-01) (42, 6.67538702487945556641e-01) (43, -4.73704524338245391846e-02) (0, -3.27806282043457031250e+00) (1, 3.14628817141056060791e-02) (2, -6.04049825668334960938e+00) (3, 3.87980672530829906464e-03) (4, -1.19926340878009796143e-01) (5, -2.00405502319335937500e+00) (6, -5.76432526111602783203e-01) (7, 7.31983602046966552734e-01) (8, -3.30057799816131591797e-01) (9, -6.09360784292221069336e-02) (10, 3.21209883689880371094e+00) (11, 3.12735438346862792969e+00) (12, 1.21903836727142333984e+00) (13, 9.50760066509246826172e-01) (14, -1.53376855850219726562e+01) (15, 1.28269064426422119141e+00) (16, -1.72017458826303482056e-02) (17, 9.30552780628204345703e-01) (18, 6.29854977130889892578e-01) (19, -1.49365410208702087402e-01) (20, 1.10497616231441497803e-01) (21, -5.17894315719604492188e+00) (22, 1.18489444255828857422e+00) (23, 1.06275224685668945312e+00) (24, 1.07119071483612060547e+00) (25, 1.07826590538024902344e+00) (26, 1.09368968009948730469e+00) (27, 4.10368442535400390625e+00) (28, 3.13262796401977539062e+00) (29, 4.02264070510864257812e+00) (30, 3.05597043037414550781e+00) (31, 4.09977406263351440430e-01) (32, -8.76692581176757812500e+00) (33, 1.22647809982299804688e+00) (34, 2.98904156684875488281e+00) (35, -1.39829564094543457031e+00) (36, -5.16459083557128906250e+00) (37, 1.57070025801658630371e-01) (38, -1.39110636711120605469e+00) (39, 4.74386692047119140625e+00) (40, 6.25293552875518798828e-01) (41, 1.19470989704132080078e+00) (42, 1.69163763523101806641e-01) (43, -8.60311910510063171387e-02) (0, 3.30352663993835449219e+00) (1, 6.95890998840332031250e+00) (2, 3.56359505653381347656e+00) (3, 5.30981659889221191406e-01) (4, 1.88813877105712890625e+00) (5, 4.51144874095916748047e-01) (6, 9.11002278327941894531e-01) (7, -5.09355211257934570312e+00) (8, -2.78554224967956542969e+00) (9, 1.11008599400520324707e-01) (10, 7.89475739002227783203e-01) (11, -2.95494508743286132812e+00) (12, -7.42204904556274414062e-01) (13, -1.00393444299697875977e-01) (14, -8.65799140930175781250e+00) (15, 1.74710884690284729004e-01) (16, -8.20898830890655517578e-01) (17, -2.54696726799011230469e-01) (18, 2.54071410745382308960e-03) (19, 1.16849588230252265930e-02) (20, 8.08267056941986083984e-01) (21, 1.21789193153381347656e+00) (22, 7.29773938655853271484e-01) (23, -5.19548320770263671875e+00) (24, -5.16116905212402343750e+00) (25, -1.30341732501983642578e+00) (26, -2.94545507431030273438e+00) (27, -1.90882837772369384766e+00) (28, -1.93160855770111083984e+00) (29, -1.88888108730316162109e+00) (30, -1.78333652019500732422e+00) (31, 2.37194061279296875000e-01) (32, -1.54211654663085937500e+01) (33, -5.62701582908630371094e-01) (34, -2.31543755531311035156e+00) (35, 4.55745190382003784180e-01) (36, 7.89100527763366699219e-02) (37, 1.08135056495666503906e+00) (38, 1.17024922370910644531e+00) (39, 5.46292245388031005859e-01) (40, 1.56142091751098632812e+00) (41, 6.75344645977020263672e-01) (42, 1.04452908039093017578e+00) (43, 6.92556381225585937500e-01) (0, 4.68107461929321289062e-01) (1, 7.68404543399810791016e-01) (2, 5.89449787139892578125e+00) (3, 8.89544308185577392578e-01) (4, 7.51626908779144287109e-01) (5, 1.79847431182861328125e+00) (6, 8.71905863285064697266e-01) (7, -2.22315527498722076416e-02) (8, 2.03090929985046386719e+00) (9, 4.42275762557983398438e-01) (10, -1.17698574066162109375e+00) (11, -1.08343684673309326172e+00) (12, -4.20789718627929687500e-01) (13, 6.27607107162475585938e-01) (14, 1.53782339096069335938e+01) (15, -1.52996659278869628906e-01) (16, 5.79244971275329589844e-01) (17, 1.48733675479888916016e-01) (18, 1.60033509135246276855e-01) (19, 7.55349934101104736328e-01) (20, 1.73887293785810470581e-02) (21, 6.89424991607666015625e+00) (22, -3.70374292135238647461e-01) (23, -7.37259328365325927734e-01) (24, -2.70733058452606201172e-01) (25, -9.72938001155853271484e-01) (26, -2.89114177227020263672e-01) (27, -2.51622295379638671875e+00) (28, -1.08938634395599365234e+00) (29, -2.67125153541564941406e+00) (30, -1.09703266620635986328e+00) (31, -1.41898736357688903809e-01) (32, 9.81680679321289062500e+00) (33, 1.04534602165222167969e+00) (34, 6.69765174388885498047e-01) (35, 4.54787540435791015625e+00) (36, 4.61224317550659179688e+00) (37, 3.82266998291015625000e-01) (38, 2.23932668566703796387e-01) (39, -3.09710860252380371094e+00) (40, -7.20431327819824218750e-01) (41, -4.17258143424987792969e-01) (42, -2.93725907802581787109e-01) (43, 4.22906458377838134766e-01) (0, 4.62750673294067382812e+00) (1, 1.45477247238159179688e+00) (2, 6.16782045364379882812e+00) (3, 1.36954319477081298828e+00) (4, 1.33544290065765380859e+00) (5, 1.56719064712524414062e+00) (6, 1.53710019588470458984e+00) (7, -8.04205179214477539062e-01) (8, -3.13522815704345703125e-01) (9, -3.13905216753482818604e-02) (10, -6.20691835880279541016e-01) (11, -8.77696931362152099609e-01) (12, -7.41435468196868896484e-01) (13, 6.26681208610534667969e-01) (14, 1.54713010787963867188e+01) (15, 5.56469321250915527344e-01) (16, -5.66185340285301208496e-02) (17, 4.79974508285522460938e-01) (18, 6.19256198406219482422e-01) (19, 1.45497691631317138672e+00) (20, -1.12092345952987670898e-01) (21, 6.78382444381713867188e+00) (22, -7.81192600727081298828e-01) (23, -7.17898309230804443359e-01) (24, -8.23934555053710937500e-01) (25, -7.76211321353912353516e-01) (26, -8.36124181747436523438e-01) (27, -8.32089066505432128906e-01) (28, -7.68696725368499755859e-01) (29, -7.05077469348907470703e-01) (30, -8.36260676383972167969e-01) (31, 3.64220231771469116211e-01) (32, 1.44122242927551269531e+00) (33, -8.04276585578918457031e-01) (34, -8.29912841320037841797e-01) (35, 1.51416003704071044922e+00) (36, 2.90520620346069335938e+00) (37, 3.34491878747940063477e-01) (38, 1.58456087112426757812e-01) (39, -1.84921753406524658203e+00) (40, -5.84007859230041503906e-01) (41, -8.17340135574340820312e-01) (42, -3.43868918716907501221e-02) (43, 3.52660752832889556885e-02) (0, 1.19108878076076507568e-01) (1, 2.88448065519332885742e-01) (2, 3.08723337948322296143e-02) (3, 1.36556625366210937500e-01) (4, 2.07304462790489196777e-01) (5, -1.97404491901397705078e+00) (6, -2.62156240642070770264e-02) (7, 1.29315286874771118164e-01) (8, -3.30024886131286621094e+00) (9, 3.53787273168563842773e-01) (10, 3.31068968772888183594e+00) (11, 3.06566548347473144531e+00) (12, 1.68778598308563232422e-01) (13, -2.78381351381540298462e-02) (14, -1.53931465148925781250e+01) (15, 1.24401502311229705811e-01) (16, -1.97366166114807128906e+00) (17, 5.95503211021423339844e-01) (18, 9.17430520057678222656e-02) (19, -1.87124218791723251343e-02) (20, 1.60140231251716613770e-01) (21, -2.05727434158325195312e+00) (22, 1.48951458930969238281e+00) (23, 5.08995532989501953125e-01) (24, 2.20502749085426330566e-01) (25, 1.52086615562438964844e+00) (26, 6.06091797351837158203e-01) (27, 3.16544389724731445312e+00) (28, 3.11369943618774414062e+00) (29, 3.23017621040344238281e+00) (30, 3.14720559120178222656e+00) (31, 1.71506643295288085938e+00) (32, -8.65019321441650390625e+00) (33, -8.59603524208068847656e-01) (34, -6.13881289958953857422e-01) (35, -3.05603814125061035156e+00) (36, -3.15213203430175781250e+00) (37, 3.15285491943359375000e+00) (38, -1.33829385042190551758e-01) (39, 4.65005302429199218750e+00) (40, 3.18784546852111816406e+00) (41, 5.06556153297424316406e-01) (42, 3.24388289451599121094e+00) (43, 2.00946390628814697266e-01) (0, -2.11008930206298828125e+00) (1, -3.78057807683944702148e-01) (2, 1.27413511276245117188e+00) (3, -1.30329772830009460449e-01) (4, -4.40746992826461791992e-01) (5, 1.81115105748176574707e-01) (6, -1.11622385680675506592e-01) (7, 9.82167840003967285156e-01) (8, 6.30456387996673583984e-01) (9, -1.39692723751068115234e-01) (10, -5.55935204029083251953e-01) (11, 3.84403854608535766602e-01) (12, 3.15136164426803588867e-01) (13, -1.22301474213600158691e-01) (14, 1.52916431427001953125e+01) (15, 4.63939696550369262695e-01) (16, 2.08733296394348144531e+00) (17, 1.38130858540534973145e-02) (18, -8.90860781073570251465e-02) (19, 5.72233600541949272156e-03) (20, 4.01548385620117187500e-01) (21, 2.89382003247737884521e-02) (22, -5.81072131171822547913e-03) (23, 6.46682858467102050781e-01) (24, 6.47387444972991943359e-01) (25, 4.24005240201950073242e-01) (26, 6.24900400638580322266e-01) (27, 1.21369314193725585938e+00) (28, 1.34835922718048095703e+00) (29, 6.15233004093170166016e-01) (30, 7.42678701877593994141e-01) (31, -2.17812865972518920898e-01) (32, 9.78090667724609375000e+00) (33, 1.75992417335510253906e+00) (34, 3.26207780838012695312e+00) (35, 7.11186349391937255859e-01) (36, 7.20457375049591064453e-01) (37, -1.16240990161895751953e+00) (38, -1.95174559950828552246e-01) (39, -6.29935264587402343750e-02) (40, -1.34647357463836669922e+00) (41, 3.53562715463340282440e-03) (42, -1.63227617740631103516e-01) (43, 2.44637325406074523926e-01) (0, 6.60810887813568115234e-01) (1, -6.22511565685272216797e-01) (2, -1.29888892173767089844e-01) (3, -1.34090840816497802734e-01) (4, -5.03094971179962158203e-01) (5, -4.94838982820510864258e-01) (6, -5.04383742809295654297e-01) (7, 1.19162201881408691406e+00) (8, 1.13963842391967773438e+00) (9, 5.16195178031921386719e-01) (10, 8.10973882675170898438e-01) (11, 1.14491498470306396484e+00) (12, 1.19545137882232666016e+00) (13, -3.99576537311077117920e-02) (14, -5.23235511779785156250e+00) (15, 1.05121143162250518799e-01) (16, 1.60426571965217590332e-01) (17, -3.41542541980743408203e-01) (18, -2.48584821820259094238e-01) (19, -6.05539262294769287109e-01) (20, 6.62692070007324218750e-01) (21, 4.12336379289627075195e-01) (22, 1.93044912815093994141e+00) (23, 1.17385768890380859375e+00) (24, 1.09176361560821533203e+00) (25, 1.15573561191558837891e+00) (26, 1.10788476467132568359e+00) (27, 3.10437893867492675781e+00) (28, 3.17987227439880371094e+00) (29, 3.10036969184875488281e+00) (30, 3.14502501487731933594e+00) (31, -6.18966162204742431641e-01) (32, -4.90744590759277343750e+00) (33, 3.19597411155700683594e+00) (34, -2.79393404722213745117e-01) (35, 6.85403704643249511719e-01) (36, 8.64942789077758789062e-01) (37, 3.80588471889495849609e-01) (38, 8.20108175277709960938e-01) (39, 5.20511984825134277344e-01) (40, 5.59488236904144287109e-01) (41, 7.90930211544036865234e-01) (42, 8.08835566043853759766e-01) (43, 8.02198648452758789062e-01) (0, 6.36989533901214599609e-01) (1, 5.41291475296020507812e-01) (2, -2.21693411469459533691e-01) (3, 2.57153540849685668945e-01) (4, 4.00101006031036376953e-01) (5, -2.07475781440734863281e+00) (6, 1.13076366484165191650e-01) (7, -2.02451497316360473633e-01) (8, -1.32885468006134033203e+00) (9, -1.16426594555377960205e-01) (10, 1.23535954952239990234e+00) (11, 1.20494210720062255859e+00) (12, 4.02694731950759887695e-01) (13, 1.50418788194656372070e-01) (14, -1.54507045745849609375e+01) (15, 8.66072773933410644531e-02) (16, -6.26890540122985839844e-01) (17, 3.25485855340957641602e-01) (18, 3.73807042837142944336e-01) (19, 8.64644944667816162109e-02) (20, 5.41722550988197326660e-02) (21, -2.05434107780456542969e+00) (22, 1.25127434730529785156e+00) (23, 3.60986649990081787109e-01) (24, 2.98657834529876708984e-01) (25, 1.23123073577880859375e+00) (26, 2.29863464832305908203e-01) (27, 3.16839313507080078125e+00) (28, 3.13947319984436035156e+00) (29, 3.35052299499511718750e+00) (30, 3.13043999671936035156e+00) (31, 6.93069577217102050781e-01) (32, -8.71700286865234375000e+00) (33, -2.32969686388969421387e-01) (34, -5.55642127990722656250e-01) (35, -1.22309422492980957031e+00) (36, -3.16489553451538085938e+00) (37, 1.11032545566558837891e+00) (38, 2.28203739970922470093e-02) (39, 2.00661182403564453125e+00) (40, 1.26236724853515625000e+00) (41, 5.88686883449554443359e-01) (42, 1.13662278652191162109e+00) (43, 6.43704012036323547363e-02) (44, 2.66752886772155761719e+00) (45, -5.68153798580169677734e-01) (46, 1.53739967346191406250e+01) (47, 1.21203839778900146484e-01) (48, 2.14919567108154296875e+00) (49, 1.25492572784423828125e+00) (50, -6.17431449890136718750e+00) (51, -1.12698388099670410156e+00) (52, 5.61343765258789062500e+00) (53, -1.12416243553161621094e+00) (44, -2.63049483299255371094e-01) (45, -6.30366504192352294922e-01) (46, -1.99526265263557434082e-01) (47, 1.41189023852348327637e-01) (48, 5.43492808938026428223e-02) (49, -1.54318513870239257812e+01) (50, 8.72639369964599609375e+00) (51, -3.19195955991744995117e-01) (52, -6.52689933776855468750e+00) (53, 5.41883885860443115234e-01) (44, 1.22108113765716552734e+00) (45, 1.54509754180908203125e+01) (46, -1.13033212721347808838e-01) (47, -3.81548881530761718750e+00) (48, -6.99154734611511230469e-01) (49, 3.69870829582214355469e+00) (50, 5.88195562362670898438e+00) (51, -2.63337761163711547852e-01) (52, 3.04022288322448730469e+00) (53, -4.18123513460159301758e-01) 
