FANN_FLO_2.1
num_layers=3
learning_rate=0.700000
connection_rate=1.000000
network_type=0
learning_momentum=0.000000
training_algorithm=2
train_error_function=1
train_stop_function=0
cascade_output_change_fraction=0.010000
quickprop_decay=-0.000100
quickprop_mu=1.750000
rprop_increase_factor=1.200000
rprop_decrease_factor=0.500000
rprop_delta_min=0.000000
rprop_delta_max=50.000000
rprop_delta_zero=0.100000
cascade_output_stagnation_epochs=12
cascade_candidate_change_fraction=0.010000
cascade_candidate_stagnation_epochs=12
cascade_max_out_epochs=150
cascade_min_out_epochs=50
cascade_max_cand_epochs=150
cascade_min_cand_epochs=50
cascade_num_candidate_groups=2
bit_fail_limit=3.49999994039535522461e-01
cascade_candidate_limit=1.00000000000000000000e+03
cascade_weight_multiplier=4.00000005960464477539e-01
cascade_activation_functions_count=10
cascade_activation_functions=3 5 7 8 10 11 14 15 16 17 
cascade_activation_steepnesses_count=4
cascade_activation_steepnesses=2.50000000000000000000e-01 5.00000000000000000000e-01 7.50000000000000000000e-01 1.00000000000000000000e+00 
layer_sizes=44 10 7 
scale_included=0
neurons (num_inputs, activation_function, activation_steepness)=(0, 0, 0.00000000000000000000e+00) (0, 0, 0.00000000000000000000e+00) (0, 0, 0.00000000000000000000e+00) (0, 0, 0.00000000000000000000e+00) (0, 0, 0.00000000000000000000e+00) (0, 0, 0.00000000000000000000e+00) (0, 0, 0.00000000000000000000e+00) (0, 0, 0.00000000000000000000e+00) (0, 0, 0.00000000000000000000e+00) (0, 0, 0.00000000000000000000e+00) (0, 0, 0.00000000000000000000e+00) (0, 0, 0.00000000000000000000e+00) (0, 0, 0.00000000000000000000e+00) (0, 0, 0.00000000000000000000e+00) (0, 0, 0.00000000000000000000e+00) (0, 0, 0.00000000000000000000e+00) (0, 0, 0.00000000000000000000e+00) (0, 0, 0.00000000000000000000e+00) (0, 0, 0.00000000000000000000e+00) (0, 0, 0.00000000000000000000e+00) (0, 0, 0.00000000000000000000e+00) (0, 0, 0.00000000000000000000e+00) (0, 0, 0.00000000000000000000e+00) (0, 0, 0.00000000000000000000e+00) (0, 0, 0.00000000000000000000e+00) (0, 0, 0.00000000000000000000e+00) (0, 0, 0.00000000000000000000e+00) (0, 0, 0.00000000000000000000e+00) (0, 0, 0.00000000000000000000e+00) (0, 0, 0.00000000000000000000e+00) (0, 0, 0.00000000000000000000e+00) (0, 0, 0.00000000000000000000e+00) (0, 0, 0.00000000000000000000e+00) (0, 0, 0.00000000000000000000e+00) (0, 0, 0.00000000000000000000e+00) (0, 0, 0.00000000000000000000e+00) (0, 0, 0.00000000000000000000e+00) (0, 0, 0.00000000000000000000e+00) (0, 0, 0.00000000000000000000e+00) (0, 0, 0.00000000000000000000e+00) (0, 0, 0.00000000000000000000e+00) (0, 0, 0.00000000000000000000e+00) (0, 0, 0.00000000000000000000e+00) (0, 0, 0.00000000000000000000e+00) (44, 5, 5.00000000000000000000e-01) (44, 5, 5.00000000000000000000e-01) (44, 5, 5.00000000000000000000e-01) (44, 5, 5.00000000000000000000e-01) (44, 5, 5.00000000000000000000e-01) (44, 5, 5.00000000000000000000e-01) (44, 5, 5.00000000000000000000e-01) (44, 5, 5.00000000000000000000e-01) (44, 5, 5.00000000000000000000e-01) (0, 5, 0.00000000000000000000e+00) (10, 5, 5.00000000000000000000e-01) (10, 5, 5.00000000000000000000e-01) (10, 5, 5.00000000000000000000e-01) (10, 5, 5.00000000000000000000e-01) (10, 5, 5.00000000000000000000e-01) (10, 5, 5.00000000000000000000e-01) (0, 5, 0.00000000000000000000e+00) 
connections (connected_to_neuron, weight)=(0, -8.69491875171661376953e-01) (1, -4.30832177400588989258e-01) (2, 1.03786659240722656250e+01) (3, 7.41333544254302978516e-01) (4, -1.97616532444953918457e-01) (5, 3.57503414154052734375e-01) (6, 1.39918819069862365723e-01) (7, 3.26030850410461425781e+00) (8, 1.19341611862182617188e+00) (9, 2.54181170463562011719e+00) (10, 9.48545634746551513672e-02) (11, -1.27292191982269287109e+00) (12, 3.75683546066284179688e-01) (13, 3.36850762367248535156e-01) (14, -2.57005000114440917969e+00) (15, 2.28889524936676025391e-01) (16, 3.14500123262405395508e-01) (17, 8.71592617034912109375e+00) (18, 2.85945564508438110352e-01) (19, 3.12530946731567382812e+00) (20, 1.92628785967826843262e-01) (21, -2.12585330009460449219e+00) (22, 2.92264127731323242188e+00) (23, 4.73622947931289672852e-01) (24, 6.45177841186523437500e-01) (25, 3.03886681795120239258e-01) (26, 2.79032558202743530273e-01) (27, -1.44042425155639648438e+01) (28, 3.84524130821228027344e+00) (29, 2.80182480812072753906e-01) (30, -2.66029024124145507812e+00) (31, -2.07397632598876953125e+01) (32, 4.41405391693115234375e+00) (33, 4.46234047412872314453e-01) (34, 6.01502478122711181641e-01) (35, 1.18879294395446777344e+00) (36, -7.23476767539978027344e-01) (37, 9.81427967548370361328e-01) (38, 5.87337195873260498047e-01) (39, -3.27258491516113281250e+01) (40, -1.87222111225128173828e+00) (41, -4.89375972747802734375e+00) (42, 4.84590202569961547852e-01) (43, 4.79985885322093963623e-02) (0, -2.89173215627670288086e-01) (1, 6.56640529632568359375e+00) (2, -5.03375768661499023438e+00) (3, -2.53638863563537597656e-01) (4, -1.76505193114280700684e-01) (5, 3.24272727966308593750e+00) (6, -4.99812334775924682617e-01) (7, 1.25626134872436523438e+00) (8, -1.62214088439941406250e+00) (9, -5.84332160651683807373e-02) (10, 4.92170691490173339844e-01) (11, 2.87088695913553237915e-02) (12, 5.03953874111175537109e-01) (13, 1.06758468627929687500e+02) (14, 1.94080448150634765625e+00) (15, 5.04447579383850097656e-01) (16, 1.26818990707397460938e+01) (17, 1.66198050975799560547e+00) (18, 2.76236796379089355469e+00) (19, 5.75139427185058593750e+00) (20, -3.48144561052322387695e-01) (21, 4.77786254882812500000e+00) (22, -9.81465101242065429688e-01) (23, -3.41537380218505859375e+00) (24, -2.90136623382568359375e+00) (25, -1.64852130413055419922e+00) (26, 1.07271480560302734375e+00) (27, -7.57810831069946289062e+00) (28, -1.53164606094360351562e+01) (29, -7.58161354064941406250e+00) (30, 9.36253547668457031250e+00) (31, 1.50531539916992187500e+01) (32, -5.51730346679687500000e+01) (33, 3.65105509757995605469e-01) (34, -5.68249082565307617188e+00) (35, -6.80824279785156250000e-01) (36, -2.21581649780273437500e+00) (37, -4.67186510562896728516e-01) (38, -4.12792801856994628906e-01) (39, 6.52072191238403320312e-01) (40, 4.03404265642166137695e-01) (41, -2.17511653900146484375e+00) (42, -2.65196418762207031250e+00) (43, -3.68783384561538696289e-01) (0, 7.16113626956939697266e-01) (1, -4.38867628574371337891e-01) (2, -1.50074853897094726562e+01) (3, -1.26956796646118164062e+00) (4, 2.97603626251220703125e+01) (5, 2.53650903701782226562e-01) (6, 1.94000196456909179688e+00) (7, -1.13239920139312744141e+00) (8, 5.63484072685241699219e-01) (9, 4.99685406684875488281e-01) (10, -1.76211237907409667969e-01) (11, 1.99861139059066772461e-01) (12, -6.91320538520812988281e-01) (13, 4.76005411148071289062e+00) (14, -2.03156024217605590820e-01) (15, 5.69412171840667724609e-01) (16, -5.51535725593566894531e-01) (17, -2.64247894287109375000e-01) (18, -5.61937808990478515625e-01) (19, -1.29848694801330566406e+00) (20, -1.70334205031394958496e-01) (21, 2.45946720242500305176e-01) (22, -1.92546761035919189453e+00) (23, 3.83898705244064331055e-01) (24, 8.76099705696105957031e-01) (25, 3.53248625993728637695e-01) (26, -1.08549487590789794922e+00) (27, 1.34195685386657714844e+00) (28, 2.03721928596496582031e+00) (29, -1.93289443850517272949e-01) (30, -1.19747316837310791016e+00) (31, -3.80658187866210937500e+01) (32, 2.32392168045043945312e+00) (33, 8.23347687721252441406e-01) (34, 5.56502151489257812500e+00) (35, -2.38614439964294433594e+00) (36, 1.67054152488708496094e+00) (37, 1.78793776035308837891e+00) (38, 7.14237540960311889648e-02) (39, 7.08772201538085937500e+01) (40, -1.20805718004703521729e-01) (41, 1.19599545001983642578e+00) (42, 1.50666582584381103516e+00) (43, 1.69403120875358581543e-01) (0, 2.95233160257339477539e-01) (1, 2.45601749420166015625e+00) (2, 4.64857149124145507812e+00) (3, -1.92437842488288879395e-01) (4, 3.11301517486572265625e+00) (5, 2.84293532371520996094e-01) (6, -1.48149132728576660156e+00) (7, 1.05421352386474609375e+00) (8, -6.73985064029693603516e-01) (9, 1.31152200698852539062e+00) (10, 6.89759254455566406250e-01) (11, 1.62792301177978515625e+00) (12, 1.52994811534881591797e+00) (13, 3.02889990806579589844e+00) (14, 3.73519062995910644531e+00) (15, 4.63466567993164062500e+01) (16, -6.54300498962402343750e+00) (17, 1.13482356071472167969e+00) (18, 6.11228370666503906250e+00) (19, 2.49476222991943359375e+01) (20, 5.09836435317993164062e-01) (21, -2.27443039417266845703e-01) (22, -2.32054877281188964844e+00) (23, -1.00766569375991821289e-02) (24, -1.54392023086547851562e+01) (25, -4.83763933181762695312e+00) (26, 1.50115406513214111328e+00) (27, 9.72478687763214111328e-01) (28, -1.05481243133544921875e+01) (29, -6.07162094116210937500e+00) (30, 6.46625328063964843750e+00) (31, -1.71519889831542968750e+01) (32, -9.08239841461181640625e+00) (33, -1.50914680957794189453e+00) (34, -1.42987966537475585938e+01) (35, -6.59836828708648681641e-01) (36, 1.06349811553955078125e+01) (37, 2.42854261398315429688e+00) (38, 8.78801703453063964844e-01) (39, -2.86447486877441406250e+01) (40, 1.02407979965209960938e+00) (41, -1.65900743007659912109e+00) (42, -2.26099944114685058594e+00) (43, -1.20605003833770751953e+00) (0, 3.17353963851928710938e-01) (1, 1.71246111392974853516e-01) (2, -1.92173290252685546875e+01) (3, 3.16232629120349884033e-02) (4, 3.33671681582927703857e-02) (5, 7.81957134604454040527e-02) (6, -4.26247566938400268555e-01) (7, 1.54495489597320556641e+00) (8, 6.39165103435516357422e-01) (9, -1.17748355865478515625e+00) (10, 1.47654205560684204102e-01) (11, 6.40252903103828430176e-02) (12, 5.13842582702636718750e-01) (13, -1.73742532730102539062e-01) (14, 7.82598912715911865234e-01) (15, 6.00706785917282104492e-02) (16, 4.92810048162937164307e-02) (17, 9.93945002555847167969e-01) (18, 1.69662043452262878418e-01) (19, 6.16723120212554931641e-01) (20, 5.66525280475616455078e-01) (21, -1.68841228485107421875e+01) (22, 1.46663463115692138672e+00) (23, 5.80982089042663574219e-01) (24, 5.34588754177093505859e-01) (25, 1.73671826720237731934e-01) (26, 5.79541921615600585938e-01) (27, -2.76709175109863281250e+01) (28, 7.13487505912780761719e-01) (29, 1.50639817118644714355e-01) (30, -2.85132813453674316406e+00) (31, -1.67048716545104980469e+00) (32, -5.42919254302978515625e+00) (33, -4.48217481374740600586e-01) (34, -8.08963775634765625000e-02) (35, 8.83527696132659912109e-01) (36, 3.05220454931259155273e-01) (37, 4.92713242769241333008e-01) (38, 6.58769369125366210938e-01) (39, -1.12023277282714843750e+01) (40, -4.20343309640884399414e-01) (41, -6.60838067531585693359e-01) (42, 2.54900336265563964844e-01) (43, 6.44957721233367919922e-01) (0, -1.50000000000000000000e+03) (1, 1.50000000000000000000e+03) (2, 6.83922529220581054688e+00) (3, 1.50000000000000000000e+03) (4, 2.23797775268554687500e+02) (5, 1.97149219512939453125e+01) (6, 1.34593286132812500000e+03) (7, -2.02946491241455078125e+01) (8, -6.28685974121093750000e+02) (9, -5.51599914550781250000e+02) (10, -9.05846862792968750000e+02) (11, -5.15664863586425781250e+01) (12, -1.50000000000000000000e+03) (13, 1.62192840576171875000e+02) (14, -1.30644941329956054688e+00) (15, 1.46339599609375000000e+02) (16, 1.50000000000000000000e+03) (17, 1.50000000000000000000e+03) (18, 1.50000000000000000000e+03) (19, 1.21501684570312500000e+03) (20, -1.50000000000000000000e+03) (21, 7.72215270996093750000e+01) (22, -6.82300964355468750000e+02) (23, -1.96088695526123046875e+01) (24, -1.50000000000000000000e+03) (25, -1.50000000000000000000e+03) (26, -1.43652734375000000000e+03) (27, 1.37696504592895507812e+01) (28, -8.30671875000000000000e+02) (29, -7.06627607345581054688e+00) (30, -1.17166213989257812500e+01) (31, 3.37468838691711425781e+00) (32, -3.78927397727966308594e+00) (33, -5.93677997589111328125e+00) (34, 4.98343849182128906250e+00) (35, -1.50000000000000000000e+03) (36, -1.50000000000000000000e+03) (37, -1.38516528320312500000e+03) (38, -1.50000000000000000000e+03) (39, 3.67193878173828125000e+02) (40, -1.50000000000000000000e+03) (41, -6.93906688690185546875e+00) (42, -1.50000000000000000000e+03) (43, -1.50000000000000000000e+03) (0, 7.63362288475036621094e-01) (1, -1.45386660099029541016e+00) (2, 2.22575855255126953125e+00) (3, 3.20861434936523437500e+01) (4, -4.93606424331665039062e+00) (5, -9.16018199920654296875e+00) (6, 2.67038702964782714844e-01) (7, 5.64748346805572509766e-01) (8, 1.01115274429321289062e+00) (9, 2.29336318969726562500e+01) (10, 5.43820476531982421875e+00) (11, 2.44469714164733886719e+00) (12, 5.02878189086914062500e-01) (13, 7.45257735252380371094e-01) (14, 2.50416135787963867188e+00) (15, -2.81922426074743270874e-02) (16, 1.89800965785980224609e+00) (17, -1.70863807201385498047e+00) (18, -9.57688838243484497070e-02) (19, -3.12118673324584960938e+00) (20, 5.33064961433410644531e-01) (21, 6.15553741455078125000e+01) (22, 9.23798143863677978516e-01) (23, 1.10850334167480468750e+00) (24, 4.68942672014236450195e-01) (25, 3.07562172412872314453e-01) (26, 3.29296231269836425781e-01) (27, 2.68514289855957031250e+01) (28, 2.75512742996215820312e+00) (29, 3.52490305900573730469e-01) (30, 6.33417725563049316406e-01) (31, -6.31996536254882812500e+01) (32, -9.68747520446777343750e+00) (33, 1.07431769371032714844e+00) (34, 4.15528029203414916992e-01) (35, 2.78879880905151367188e-01) (36, 8.12943458557128906250e+00) (37, 1.25103921890258789062e+01) (38, 2.94797629117965698242e-01) (39, 5.65693855285644531250e+00) (40, 8.74256610870361328125e-01) (41, 2.85845518112182617188e+00) (42, 7.23737597465515136719e-01) (43, 3.33424478769302368164e-01) (0, -7.06103384494781494141e-01) (1, 2.05192685127258300781e+00) (2, 1.38174495697021484375e+01) (3, 1.95317685604095458984e+00) (4, 5.25752961635589599609e-01) (5, 1.53067290782928466797e+00) (6, -4.61870729923248291016e-01) (7, 8.63257944583892822266e-01) (8, -7.04816043376922607422e-01) (9, -5.27401685714721679688e-01) (10, -2.58038192987442016602e-02) (11, -8.96958932280540466309e-02) (12, 5.97585558891296386719e-01) (13, -4.52952533960342407227e-01) (14, -1.26143860816955566406e+00) (15, 2.81356382369995117188e+00) (16, 1.09767210483551025391e+00) (17, 1.23360242843627929688e+01) (18, 5.70304679870605468750e+00) (19, 3.68600189208984375000e+02) (20, 1.92292138934135437012e-01) (21, -1.80795991420745849609e+00) (22, 4.54982376098632812500e+00) (23, -3.98053199052810668945e-01) (24, -1.16140711307525634766e+00) (25, -2.06617546081542968750e+00) (26, 6.23755693435668945312e-01) (27, 8.68216931819915771484e-01) (28, -1.18264758586883544922e+00) (29, -1.76407420635223388672e+00) (30, 2.67139482498168945312e+00) (31, 2.70703048706054687500e+01) (32, -4.21878576278686523438e+00) (33, 7.08863914012908935547e-01) (34, -2.18392753601074218750e+00) (35, -5.42889833450317382812e-01) (36, -2.57402658462524414062e+00) (37, -1.77722033113241195679e-02) (38, -2.09177747368812561035e-01) (39, -6.36775779724121093750e+00) (40, -2.93389528989791870117e-01) (41, -6.42091417312622070312e+00) (42, -1.82051968574523925781e+00) (43, -2.37416163086891174316e-01) (0, -2.90373176336288452148e-01) (1, 8.56949508190155029297e-01) (2, 1.47927484512329101562e+01) (3, 3.03831934928894042969e-01) (4, -1.26399636268615722656e-01) (5, 2.71022057533264160156e+00) (6, -6.04024469852447509766e-01) (7, 4.07402706146240234375e+00) (8, -2.37531587481498718262e-01) (9, 4.44707870483398437500e-01) (10, -3.73119950294494628906e+00) (11, -4.16396903991699218750e+00) (12, -2.46888339519500732422e-01) (13, -6.16744101047515869141e-01) (14, -1.64146935939788818359e+00) (15, 2.44602084159851074219e-01) (16, 1.35714840888977050781e+00) (17, 5.69489812850952148438e+00) (18, 1.98358237743377685547e+00) (19, 1.80421218872070312500e+01) (20, -2.61412978172302246094e-01) (21, 3.93436461687088012695e-01) (22, 8.67333793640136718750e+00) (23, -4.94662165641784667969e-01) (24, -3.99698406457901000977e-01) (25, -1.80515632629394531250e+01) (26, 1.03188979625701904297e+00) (27, 1.53802204132080078125e+01) (28, -1.03868043422698974609e+00) (29, -1.09704236984252929688e+01) (30, 4.71638154983520507812e+00) (31, -2.40059223175048828125e+01) (32, 7.30787038803100585938e+00) (33, 1.50261783599853515625e+00) (34, 5.76411262154579162598e-02) (35, -7.62020200490951538086e-02) (36, -6.76208198070526123047e-01) (37, 3.34991395473480224609e-01) (38, -3.69896471500396728516e-01) (39, -5.41146707534790039062e+00) (40, -9.48845958709716796875e+00) (41, -1.45751447677612304688e+01) (42, -6.24652814865112304688e+00) (43, -3.37399899959564208984e-01) (44, 6.15172719955444335938e+00) (45, 2.34375262260437011719e+00) (46, -1.87038707733154296875e+01) (47, 4.98827266693115234375e+00) (48, 4.38866376876831054688e+00) (49, 2.42500233650207519531e+00) (50, 1.14191770553588867188e+01) (51, 3.44796714782714843750e+01) (52, 2.51864147186279296875e+01) (53, -1.42993521690368652344e+00) (44, 1.08759040832519531250e+01) (45, -1.61266784667968750000e+01) (46, 2.68708839416503906250e+01) (47, 8.36989498138427734375e+00) (48, -2.29042863845825195312e+00) (49, 2.50017380714416503906e+00) (50, 1.43030452728271484375e+00) (51, -6.89363062381744384766e-01) (52, 1.06307954788208007812e+01) (53, -8.41986560821533203125e+00) (44, -4.51890182495117187500e+01) (45, 6.93113660812377929688e+00) (46, -4.17260122299194335938e+00) (47, 7.04380655288696289062e+00) (48, -9.75462532043457031250e+00) (49, 1.46388530731201171875e+00) (50, -4.43331718444824218750e+00) (51, -5.70622301101684570312e+00) (52, -4.72795057296752929688e+00) (53, -7.41899371147155761719e-01) (44, -1.04418458938598632812e+01) (45, 1.25118122100830078125e+01) (46, 4.43437814712524414062e+00) (47, -8.78405380249023437500e+01) (48, 8.25459659099578857422e-01) (49, 2.11457991600036621094e+00) (50, 6.32302045822143554688e-01) (51, 1.62542438507080078125e+01) (52, -4.97848892211914062500e+00) (53, -1.06833291053771972656e+00) (44, 8.08032165527343750000e+02) (45, 1.50000000000000000000e+03) (46, 1.50000000000000000000e+03) (47, 9.45921447753906250000e+02) (48, 1.44494116210937500000e+03) (49, 1.50000000000000000000e+03) (50, 8.66498901367187500000e+02) (51, 1.50000000000000000000e+03) (52, 8.65734375000000000000e+02) (53, 1.17394702148437500000e+03) (44, 1.50000000000000000000e+03) (45, 1.21387316894531250000e+03) (46, 9.21242736816406250000e+02) (47, 1.47264111328125000000e+03) (48, 9.93557006835937500000e+02) (49, 1.50000000000000000000e+03) (50, -3.24364013671875000000e+02) (51, 1.50000000000000000000e+03) (52, 4.04555541992187500000e+02) (53, 1.50000000000000000000e+03) 
